198 100
the -0.010983311 -0.00082169846 -0.018959498 -0.03770988 -0.008293189 0.0138547905 -0.016890168 0.00900482 -0.0050787106 0.031341817 0.0031982549 0.04832611 0.008201789 0.010955919 -0.035862982 0.0039933696 -0.009911049 -0.0071649775 -0.03660102 -0.041223265 0.020237777 -0.02217325 0.030447807 0.013231445 -0.013144206 -0.0063291416 0.00995294 -0.042812373 0.032726895 0.049599115 0.0090002045 -0.027028609 0.04538152 0.027776066 0.02437589 -0.013261139 0.03526986 0.0062905923 0.039231215 0.035099376 -0.014912307 0.02574749 -0.0008701198 0.039092455 -0.04931269 0.033857536 0.0024226308 -0.0027810931 -0.039762426 0.00945146 0.028081361 -0.009360112 0.028479878 0.015072379 -0.038349472 0.008950748 0.032804523 -0.018558871 0.0023387186 -0.03794547 0.020971369 0.015907768 0.037998985 0.046996165 -0.021395518 -0.01786331 0.010402642 0.03434703 -0.024131525 0.020539667 0.043904852 -0.0017643347 0.015024874 -0.043820944 -0.03209852 -0.03411286 -0.018540956 0.026918713 -0.015257098 0.019336227 0.02305564 0.02588803 -0.041577615 -0.02743547 0.03979825 -0.034792006 0.046127405 -0.028543735 -0.033018697 0.0042578205 0.041356254 0.031878296 0.03960904 0.028565172 0.029156331 -0.042732596 0.04227816 -0.047780182 0.032551136 0.04883672
of 0.01627661 0.007068895 -0.022340609 -0.025604416 0.0065601245 -0.035129607 -0.03149935 -0.018477071 -0.042045306 0.018369105 0.04602239 0.03028712 -0.011031866 0.018145513 -0.009230267 0.0013835318 -0.0095544085 -0.0028772838 0.0011067875 0.017729137 0.009016883 -0.03737049 0.036485042 0.0031604283 -0.023175253 0.027626347 0.035721745 0.043383088 0.00652628 0.0050785057 0.04393175 0.025724936 0.0067774765 -0.026874626 -0.007855736 -0.015495528 -0.0011044852 -0.002274491 -0.011149846 0.037419904 -0.03803941 -0.004865218 0.034392443 0.012189411 -0.018405557 -0.025364293 -0.0036673546 0.024173688 0.0058215484 -0.0026780851 -0.0039152615 0.009432934 -0.007230222 0.043734122 0.014165256 -0.010428298 0.027156737 0.028571222 -0.0381353 -0.01655668 0.00608008 0.04685997 -0.041174866 0.027177822 0.0147305615 -0.019887721 0.017481115 -0.005625285 0.0021065362 -0.009007417 0.035422016 0.03399131 0.04849812 -0.024841214 0.04677013 -0.03908354 0.01638155 -0.048304927 0.0483259 -0.020683361 -0.005059112 -0.014123164 -0.020840168 -0.043092825 0.047004234 -0.005216945 -0.0059515126 -0.03596697 0.029114317 0.027671847 -0.04518355 -0.0073913224 -0.044543456 -0.009028874 -0.047440793 -0.008540355 0.017004196 -0.03978182 -0.03865417 0.018020954
influenza -0.021106852 -0.0004908815 0.035370473 0.010608934 -0.032481182 -0.048944294 0.012247909 -0.00078688934 -0.037057698 -0.009778131 0.028588478 0.046448354 0.020809744 0.013635699 -0.007509373 0.03706417 -0.003964007 -0.029621352 -0.009674393 0.037481155 -0.0101946 0.007296633 0.014607299 0.025745276 -0.013327979 0.02637687 -0.03226453 0.006833948 -0.0042066574 -0.025691379 -0.034065355 -0.0006743185 -0.005600702 0.0151884295 -0.019603623 0.022506546 -0.0001032725 0.027206335 -0.049437832 0.03241768 0.014720414 -0.020928813 0.03246746 -0.04851791 2.9541552e-05 -0.049095917 -0.03971442 -0.03163916 0.02387685 0.028926302 -0.008458294 0.014140736 0.007121872 0.037163783 0.0339836 -0.03791392 0.007902481 -0.012208115 -0.04551058 0.0467552 0.034173 0.037126992 -0.04541378 -0.011896886 0.015638541 -0.027790476 0.045332458 -0.03760624 0.017579291 0.0013866052 0.030421201 -0.030622078 0.028455649 -0.021976149 0.047328304 -0.03642448 0.020821702 0.008522868 -0.048681773 0.0436537 -0.020816946 -0.009864688 0.021311034 -0.03307768 0.044194076 0.04754505 0.044187 -0.0028032549 -0.011607241 0.019369606 0.027514938 -0.0029489286 0.015866566 -0.015546776 0.03579464 -0.0051285997 -0.0008921027 -0.012564231 -0.004677724 0.029359352
covid 0.009230744 -0.016157351 -0.018298637 0.015854191 -0.0077770725 -0.026580846 0.0143060945 0.011962354 -0.02040087 -0.043902945 -0.007329248 0.043122616 -0.040524412 -0.0068889745 -0.047425162 -0.012675822 -0.03569311 0.045697782 -0.014329992 0.01030748 0.03319535 0.007518541 -0.029582715 0.039582107 0.017645705 0.039424647 -0.0040772073 0.005517803 -0.04328854 -0.032020092 -0.046429243 0.024195049 0.045331907 0.036473718 0.034835603 -0.039453186 -0.013402224 -0.031402458 -0.01551057 0.010283958 0.008437596 -0.009102918 -0.03230699 -0.032369245 -0.042964723 0.020403039 0.039263967 -0.0026260018 -0.005376864 0.0401322 -0.04297098 0.025196109 -0.020334387 -0.015312292 0.03822768 0.02405056 0.027625564 0.037666846 0.009665035 0.01040224 0.010405935 -0.0226223 0.04784404 0.038091753 -0.012714565 2.7429312e-05 0.02261367 -0.035978507 0.01387329 0.031605605 -0.008363236 0.028154943 -0.02180233 0.022312913 0.029748771 -0.010385215 0.043853227 -0.00039377064 0.00234022 -0.029959036 -0.012563251 0.0029431954 0.0036175475 -0.000518322 -0.026956428 -0.008768689 0.0230893 -0.005998064 -0.033232022 0.032291617 -0.049523413 -0.018296443 -0.006513465 0.017332766 -0.047909748 -0.017556082 -0.04279181 -0.01319151 0.019730952 -0.0046356544
19 0.015778173 0.04970436 0.022656415 -0.028847624 0.02419937 0.010847162 -0.045818843 -0.01569406 0.04260656 0.016644012 -0.032181777 -0.021893108 -0.038719248 0.01510096 0.017255072 -0.024439478 0.039867844 -0.0049959645 0.030449335 -0.013983309 0.0063781254 0.021101508 0.033032488 0.043322597 -0.01347686 0.0044999495 0.03504013 0.024274025 -0.03907293 -0.04629917 0.034634028 -0.015012264 0.015038002 0.028748717 0.03201658 0.04578955 -0.029134179 -0.024923658 -0.028960098 -0.045023646 0.04595946 -0.037638914 -0.00041471794 -0.042420268 0.005368352 0.04010323 0.0065961964 0.008694768 0.030719545 -0.036775194 -0.0379501 0.03995843 -0.0002242215 -0.03434237 -0.011623204 -0.017256118 -0.04754461 0.009722374 -0.048722636 -0.034319714 -0.030118955 -0.023488224 -0.018413804 0.049413268 -0.017192662 -0.0059860833 -0.048046317 0.04241128 -0.0040930733 0.01040994 0.044054177 0.041579474 0.043612424 -0.016158532 0.0067336336 0.027532782 0.015199672 0.031731073 -0.040177763 -0.0015253052 0.0059314966 0.00555861 -0.004442595 -0.041978933 0.029283214 0.011053599 -0.023609245 -0.02580825 -0.015334167 -0.049744714 0.03946319 0.047360588 0.024560358 -0.028649796 0.029171709 -0.04242139 -0.009974599 0.044384327 0.0087274425 -0.03616164
virus 0.025236618 -0.016293623 0.026139226 -0.018454373 -0.006177176 0.026646484 -0.01642095 -0.015285313 0.047743212 0.013009038 0.039712895 -0.025903095 -0.045803238 -0.029504597 0.041236747 0.0024849065 -0.026596904 -0.024529422 0.019058678 -0.028976047 -0.02498423 0.048061732 -0.03029256 0.0021828525 0.04314773 0.019997146 -0.0399487 0.023811046 -0.0041136146 0.027304921 -0.017285954 -0.034674037 0.024313617 -0.007809378 -0.035148405 -0.030097866 0.020536792 0.03502177 0.03719208 0.044706393 0.02036656 0.0160756 0.0066664107 0.016632173 0.024098638 0.04643191 -0.011668481 0.0045049675 -0.04191693 0.034359086 -0.0041549206 0.027404856 0.021405194 -0.009388305 0.012965295 0.021340515 0.0208073 0.00955113 -0.033805452 0.008971252 0.04200734 -0.005685199 -0.000859797 0.0016359203 0.034265865 -8.556992e-05 -0.010652222 -0.016418993 0.015600953 0.007968627 -0.031863607 -0.037226796 -0.007793963 -0.0060655363 -0.011964798 0.0438979 0.022922758 -0.0446661 0.04726198 -0.041210867 0.017162014 -0.03254949 -0.020885969 -0.048003376 0.0062721744 -0.00236677 0.037812483 0.033957724 -0.027251435 -0.004655741 0.019558582 0.04869486 0.007770002 -0.026226843 -0.026267802 -0.017476153 0.007687878 0.001560308 0.02618524 0.03843082
for 0.013978604 0.039341714 -0.042608645 -0.009897303 0.001781784 -0.02433963 0.009957947 0.020071056 -0.0034903772 -0.016393065 0.01513939 -0.0017700568 0.03777493 0.0027058497 -0.039056934 0.03221855 0.024389867 -0.029799163 -0.04079368 -0.0075340047 -0.03444282 0.03176162 0.0009688623 0.014364328 0.0023277625 0.034934882 0.003291607 0.046915773 0.015451316 0.009888172 0.01610497 0.048162017 0.04718936 0.034595523 0.03236587 -0.005116977 -0.027224267 -0.045618083 -0.041356336 0.012026202 0.03693943 0.04252856 0.017168466 -0.008658469 -0.040858317 0.035162333 -0.012158059 0.040185403 -0.0066154487 -0.012607776 -0.02038585 -0.0071280375 -0.018151142 0.028676402 0.033781353 0.01989622 0.013771523 0.043569993 0.036344137 0.004839599 0.0054601543 0.042898323 0.009551704 -0.033584714 0.024630811 -0.009194363 -0.048195638 -0.04353397 0.022119831 0.026675079 -0.0439821 0.0055286996 0.013216268 -0.0106076 0.016291272 0.019902576 0.015376415 0.042987395 0.0407076 -0.024399197 -0.019467974 0.007153321 -0.0072285756 -0.005987633 -0.034995355 -0.012689792 -0.012450099 0.04738797 0.038717378 -0.049855985 0.011387359 -0.0023521408 -0.014500022 -0.03976824 -0.036081634 0.04713997 -0.03588573 0.022217918 -0.019664217 0.025101628
transmission -0.0116737485 -0.003495764 0.047817934 0.038179446 -0.04259453 0.034209717 -0.03334104 0.021873448 -0.034313798 0.017929051 -0.027016426 -0.020653713 0.00011718273 0.021684412 0.011022247 0.025222074 0.029114496 0.0077294335 0.022493687 0.011169516 0.00037350506 0.03064816 0.015629414 0.003824234 -0.03746774 -0.03634852 -0.026145315 0.046295535 -0.0070543997 0.008850444 0.04756217 -0.016789924 0.04475614 -0.035684217 0.03301895 0.03450836 0.04617698 -0.037869968 -0.047074616 0.03361186 0.034480486 -0.012892712 0.049345758 0.04401869 0.027241994 0.041644666 -0.04122124 -0.04335202 -0.032301545 0.017579388 -0.011654794 0.024368655 0.04428717 -0.014015235 0.031693075 -0.01258589 -0.020499099 -0.020191122 -0.023048425 -0.019733692 -0.01128266 0.02204391 0.018170264 0.0059585795 0.028941598 -0.0032214895 -0.0024147257 0.042189542 0.017264042 0.038933422 -0.035702802 -0.04904672 0.03414965 -0.03622961 -0.022071516 -0.028883183 0.0326542 -0.023830986 -0.010691844 -0.04061551 0.040121283 0.0049917474 0.03341117 -0.043978404 -0.021017754 -0.023305988 0.0015876666 0.033962037 0.011079095 0.0045468435 -0.02229563 0.04688288 -0.04159423 0.039907765 -0.020081257 -0.010515474 0.008355308 -0.03565345 -0.0039516576 0.027802173
is -0.028694047 -0.046584655 -0.024560153 0.029977683 -0.029618848 -0.027740896 0.032046568 0.024940971 -0.020950818 -0.021576107 0.021062944 -0.037482142 -0.043691278 -0.00067031384 0.034327198 0.04786421 0.018590841 0.0069559216 -0.023167897 -0.029011095 0.0344623 0.02562492 -0.043499567 -0.011573445 -0.0013142116 0.04347736 -0.04264593 -0.03244386 -0.017747663 0.031103227 0.04237506 -0.043502998 -0.0174415 -0.04739982 -0.040752687 -0.036601316 0.019164149 -0.004664529 -0.036676407 -0.047976043 0.01216178 -0.015962064 -0.04030906 0.035389606 -0.016371716 0.02876823 0.013911989 0.029113684 0.011751603 -0.043632176 0.012931112 -0.024047578 -0.032053016 -0.040219497 0.027043972 -0.023212409 -0.008227348 -0.02007742 -0.030860126 -0.0064414963 0.029654052 0.027819183 0.013928067 0.006143879 -0.04521053 -0.014056135 0.004802145 -0.04140793 -0.008497097 -0.046950962 0.048833717 0.00037938356 0.038992558 0.03912684 0.04344685 0.037027802 0.038749922 0.040959384 0.042507518 -0.003698241 0.01872078 0.0015800111 -0.018146168 0.013554338 0.023398373 0.039839756 0.04713479 -0.018311929 -0.01421522 0.011832643 0.008635402 -0.020444954 0.03830791 0.010120235 -0.032619692 -0.008374918 0.025992502 -0.038981162 -0.024584724 -0.030745124
to -0.041142035 0.019270685 -0.015873682 -0.011536848 0.03378446 -0.041066863 0.039324988 0.015883114 0.042817544 0.013205875 0.028797198 0.03268728 -0.04053714 -0.04213067 0.017290976 -0.039371084 0.012981746 0.0314863 0.04033489 0.034106504 0.008112133 0.02473991 0.044828143 0.04535008 -0.0059456825 -0.020132674 0.026788298 -0.034413375 0.0027343258 0.01577549 0.03816806 -0.004551269 0.008828867 -0.044216957 0.018428888 0.011166573 0.023548495 0.014185119 0.046697233 -0.0022706278 -0.032109417 0.018317606 0.03718705 0.023744676 -0.035566665 0.022167575 0.0062489025 -0.039953828 0.041570906 0.031919006 0.024555195 0.008746125 -0.024281252 -0.015894711 0.018827688 -0.03349848 -0.02020005 0.026625339 0.03200761 0.04048456 -0.0026563294 -0.027201355 -0.008025657 0.032844935 -0.022645999 -0.0077414885 -0.04400002 0.037275698 0.025971998 -0.043266535 0.0336154 0.025569346 0.007290721 -0.029318238 -0.033282198 0.03998221 -0.010455251 0.044899013 -0.029720103 -0.0098577365 0.035832975 -0.031529322 0.045683954 0.044210438 0.027994562 -0.026486719 0.00610701 -0.0022484548 -0.043652773 -0.0056165345 0.0004334934 -0.036826003 0.044579733 -0.010763787 0.01880512 0.041512158 -0.00041646883 0.040036153 -0.026392484 0.01115229
a -0.014582597 0.049582187 -0.049828447 -0.0137808435 0.048576917 0.032006036 -0.03866887 -0.047282707 0.0027089827 0.009355225 0.047848154 -0.0386642 0.041236196 0.013291899 -0.036014985 -0.00717349 0.02045152 0.045563642 -0.021597886 0.0450585 -0.02965287 0.03334352 -0.010431696 0.03307512 0.04626811 -0.0028103478 0.0033602603 -0.008968912 -0.027751911 -0.033387676 -0.032046817 -0.0021425374 -0.042274095 0.042566184 -0.0052470937 0.030525077 -0.039844632 0.021261606 0.021871474 -0.04848957 0.010260977 -0.017634023 0.0142306425 0.025332633 0.03560399 -0.011145998 0.029005017 0.007721305 -0.018655289 -0.0015014783 0.020053934 -0.01799059 0.048157778 -0.015842758 -0.004509352 0.029900793 -0.00085984543 0.0015096553 -0.030849779 0.0044212937 0.04695597 -0.0017175563 -0.012751125 -0.02328421 -0.012867738 -0.043205645 0.013933551 0.04205442 -0.0037706494 -0.025505746 -0.016444944 0.013518583 0.010573864 0.036311183 -0.0110997185 -0.008235574 0.0033424385 0.03292625 -0.032156207 0.03421079 -0.047391165 -0.018716596 0.013525095 -0.039547764 -0.02881161 0.033571903 -0.031047702 0.008249354 -0.037026428 0.0015292652 -0.013535965 0.0010752678 0.023619499 -0.039359786 0.03481506 -0.016603313 -0.015959669 0.04413065 -0.014418077 -0.026037574
and 0.045940135 -0.03694185 -0.0041160583 -0.03099568 0.014946889 -0.008553408 0.04609399 0.03120805 -0.0320732 -0.006992221 0.030664805 0.04486188 0.048973594 0.047349323 -0.02879039 0.026508424 -0.00192108 0.035523806 -0.048705377 0.02133644 0.018634405 0.018364515 0.02727509 -0.011853553 -0.036022224 -0.00068479776 0.033102635 -0.009265445 -0.006501984 -0.02990985 -0.010384668 -0.013782464 -0.00853033 0.019078743 0.037575733 -0.0105098 -0.0076854452 -0.03462528 -0.0153517835 -0.038946938 0.010602713 0.023308996 0.032005813 0.047113214 0.023246873 0.013121735 0.027050529 -0.019486427 -0.02248379 0.013162579 0.019668762 -0.0028731003 0.009842992 0.009741712 -0.017533839 0.013617467 0.036610488 0.038714055 -0.028842235 0.047102634 -0.02507788 0.026426267 0.032813754 0.008983623 0.018893134 0.034164254 -0.012604523 0.02973305 -0.046480786 -0.0455256 -0.00312512 0.013016891 -0.04813875 0.004347801 -0.0063003898 -0.037567653 -0.0045059435 -0.01672665 0.030819658 0.04667672 0.0047265403 -0.007165432 -0.029349124 0.037266437 -0.026591206 -0.048955526 0.00328039 -0.013493169 -0.036723923 0.049519006 -0.017530441 0.00016726181 -0.0059099197 0.023606304 -0.010468006 0.032446515 0.008461654 -0.049592853 -0.017590594 -0.0035235658
between -0.007129919 -0.008102227 0.00620104 0.023064863 -0.047408964 0.038670566 0.04842413 0.0011401065 0.03510784 -0.01289333 -0.028527046 0.044171903 -0.045419753 -0.026890123 0.010431312 -0.030698527 0.044402268 0.041761745 -0.0017618649 -0.024464523 -0.0047564507 0.049449872 -0.031868793 0.048214603 0.03178442 -0.039280318 -0.005918395 -0.023601329 -0.035401247 0.0061165206 0.03169671 -0.030378127 0.016675416 -0.0020958558 -0.037094913 0.036022928 0.04732125 -0.018520392 0.03710589 0.041374233 -0.0087191835 -0.040390134 0.0048759095 0.011365484 -0.019784093 0.04676478 0.04785664 -0.01558695 0.048005138 -0.03375274 0.014292274 0.030112829 0.0010512583 -0.0030849203 -0.003269434 -0.035342585 0.019263793 0.02335855 0.03139141 -0.029519308 -0.029010857 0.0082364455 0.0030495636 0.042039547 0.04776467 -0.008709241 0.020882 0.0036644451 -0.0128548145 -0.004641462 -0.042696275 -0.042134345 -0.014261175 0.011065435 -0.028968215 -0.010664631 -0.022827173 -0.026058782 0.003695108 0.03901471 -0.011548221 -0.022851741 0.015250627 0.03343792 0.029732082 -0.041991662 0.010479141 0.025665034 -0.040165853 0.035097707 -0.03460767 0.029435087 0.016571376 -0.019644393 0.033073608 6.568432e-05 0.018909145 -0.03916136 0.0076246634 0.027895544
time 0.031084623 0.021318924 0.008722685 -0.01633247 0.01794492 0.027960625 0.012890402 -0.04358473 -0.04330584 0.03112251 0.0014000759 0.022042576 -0.02102921 0.00312661 0.04869907 -0.04277773 -0.037212063 -0.048662793 -0.024594044 -0.014584232 -0.028634513 0.04793148 -0.017526627 0.028511945 -0.02678578 0.028942335 -0.03884524 0.044466842 0.0005880818 -0.039604865 0.044285905 0.018167827 0.02955902 -0.012281023 -0.02747047 0.011323966 0.012049578 -0.036934577 -0.018863082 -0.004146792 0.043934654 0.03857367 0.028046917 0.0017900243 -0.022496402 0.012004912 -0.048676003 -0.0013094917 -0.031568516 0.005862344 0.026182998 0.04549018 0.038819578 -0.040051915 -0.02678653 -0.031083142 -0.033725277 0.030824412 -0.00038808584 -0.034563374 0.041689742 0.021382246 0.005819954 0.020365287 0.022339884 -0.01655364 0.037754152 0.045846615 -0.046444334 0.04713312 -0.036382772 -0.021250475 0.0063188076 0.02348626 -0.01649196 0.020993117 0.043294523 -0.014626633 0.021667626 0.033199336 0.03879622 -0.04921037 0.00921024 -0.010874011 0.02575225 0.020451281 0.028445791 -0.04653993 -0.03807807 0.035180483 -0.039734244 -0.014235713 0.024041895 -0.032853678 0.037012782 0.0021316782 0.047372427 0.023625698 0.037566986 0.012183689
serial -0.007913075 -0.023448205 9.621307e-05 0.034069765 0.007896386 -0.044424273 -0.01963116 0.013974916 0.030694973 0.029628817 0.014894377 0.028795708 0.008936048 -0.040614843 -0.023829723 -0.03660711 0.0053084865 -0.04886607 0.0019120798 -0.046002187 0.005275201 0.020677637 0.010284901 -0.035849284 0.034002606 0.004183162 0.009799384 -0.005479656 0.0048716553 -0.029250765 0.031760287 -0.011066925 0.029163983 0.037135903 -0.027119303 0.007850014 -0.04401965 -0.014056124 -0.031098653 -0.027076257 0.049052645 -0.047525406 0.01165688 -0.0019629002 -0.014402676 0.028195646 0.049917888 -0.031953894 0.043513726 -0.025023734 -0.041086018 0.007895779 -0.045915615 0.037645828 0.042469192 -0.029840445 0.033418585 0.034407113 -0.02385875 -0.03845037 0.029689658 0.042178776 -0.018681277 -0.011775769 0.011141837 0.0018418804 0.02915344 -0.034723423 0.03997704 -0.0429178 0.00035458803 0.012582969 0.040752653 0.015501086 0.0006511323 0.011898745 -0.015406001 0.002468206 0.03701197 0.0030707493 -0.011370778 0.012942206 -0.010066044 -0.04523859 0.04859798 0.006303072 -0.017581869 -0.014166199 -0.034569632 -0.022784496 -0.03396602 0.028365564 -0.0006232038 0.02946135 -0.0029919855 0.02187058 0.013855014 -0.04860946 0.00072736666 -0.030712426
interval -0.015819658 -0.0035444386 -0.019116033 0.038309786 0.030112926 0.04604057 0.027628552 -0.0054550543 0.023595836 0.010804426 0.04846363 -0.02736491 -0.03513124 -0.003946673 0.004534863 -0.022360874 0.040313352 0.003662385 -0.0048370957 -0.048250973 -0.0016902685 -0.014888406 -0.04572605 -0.03394407 -0.0018979423 -0.042354595 -0.019173527 0.043986287 0.028518666 -0.04556612 0.029456388 -0.0007294789 0.0036291108 -0.03819988 -0.011051394 -0.0045340657 0.043172825 0.030998278 -0.0366294 0.018391494 -0.049996305 -0.04610732 0.039514255 0.005978845 0.042754177 0.038726773 0.02951378 -0.025073994 -0.00894903 0.017640237 0.024445478 0.04871242 -0.02314707 -0.009944368 -0.04734962 -0.042355597 -0.038370453 -0.04473666 -0.03495083 0.0023820773 0.013665821 -0.02797327 0.038904633 0.04086629 0.026499603 0.039851937 -0.03676896 0.029535081 -0.037970733 -0.018059026 0.0016766302 -0.0287871 0.04554336 -0.025132466 0.027305234 -0.029550506 0.016063835 -0.013734866 -0.038170516 -0.023046875 0.03965685 0.028698493 -0.028485466 0.024271432 0.030518796 0.034468424 0.011161339 0.004137136 0.04162891 0.03931595 0.0012639873 -0.03283359 -0.039612807 -0.042962074 -0.015771758 -0.033067778 0.0487057 0.036204603 -0.046020914 -0.032425657
than 0.030588154 0.04064392 0.023193572 -0.03464104 0.031561825 -0.00018849224 -0.0495242 -0.007204056 -0.022983957 0.0187133 0.00058085844 0.04766414 0.031757485 0.011586584 0.015280556 -0.021933138 0.005423356 -0.038116407 -0.025565421 0.007912673 -0.0453688 -0.046690073 0.0027670637 0.04153693 0.031771127 -0.0131030455 0.047901276 -0.025153149 -0.045149423 -0.034876227 0.002419185 0.03184053 0.02715503 0.04396558 0.019782875 0.031183984 0.04795063 0.028373014 0.020010743 -0.0068090446 0.011761449 -0.00551958 -0.0333287 0.0015157461 -0.013229407 0.045239974 0.0453783 0.01936907 0.03655413 -0.033738196 -0.022438062 0.012608383 -0.008711614 -0.040848255 0.041523945 -0.007008575 0.023389582 0.007153906 0.020153556 -0.024204826 -0.028564548 -0.032955624 0.030988459 -0.020510126 -0.021344876 0.00090740994 0.008298837 0.038149986 0.011024546 -0.015316285 0.037943963 0.040609572 0.041386608 0.007876001 0.012119055 -0.001835011 -0.028959572 -0.0055416003 -0.036396086 -0.045128323 0.026408758 0.019498054 -0.025494112 -0.0020835884 0.03349531 -0.045903753 -0.044714727 -0.0037012808 -0.03642279 0.021596227 0.035548616 0.01962069 -0.0034688488 0.03125533 0.0038030855 -0.038563263 0.043511916 -0.020397639 0.034791615 0.019549344
be -0.006747354 -0.009557832 0.013744507 -4.7571957e-06 -0.019392371 0.027606074 0.0077283867 -0.009642709 -0.02516439 0.011539735 0.001342535 0.025235567 -0.006557785 0.001708366 -0.032283843 -0.033053756 -0.024633074 0.035793353 -0.019724369 -0.035223864 0.02493639 -0.0039417148 0.025601868 0.043322433 -0.011444926 -0.027980542 -0.044242013 0.01096376 0.012838367 -0.03965665 0.00884391 0.04428437 0.0024330728 -0.030064393 0.049026657 -0.049349654 0.016833115 0.042439852 0.01835693 0.0027182214 0.04109383 -0.030503 0.025879804 0.017424975 -0.044783473 0.0496143 -0.033011902 0.017980468 0.042339955 0.0355754 -0.021701932 -0.015731622 0.0069326535 -0.020045614 0.03789134 -0.011616636 -0.0011989102 -0.0314994 0.0052564032 0.026885334 -0.048799336 0.0024529807 0.006867923 -0.009705745 -0.044210482 0.031993184 -0.017628632 -0.034644507 0.025572363 -0.005748879 0.008913528 0.0014613271 0.03185543 -0.041501224 0.03479064 0.017321918 -0.026805354 -0.04682671 -0.011458732 -0.030803716 0.008341622 0.01233381 0.041899923 -0.036285926 -0.009517491 0.047815513 0.00093109533 -0.03908614 0.049196575 0.011812784 -0.044149436 0.03763732 0.012868587 -0.04189259 -0.03437966 0.026256751 0.041706216 -0.04646647 -0.017081402 -0.045229234
5 -0.040370893 -0.03253205 -0.013265409 -0.048274424 0.042523492 0.03053734 0.015618231 0.029623661 -0.024645282 0.047468055 0.03292569 -0.006833207 0.021326315 0.029568922 -0.026739193 -0.030616475 -0.035631977 0.04294317 -0.04996562 0.0456619 0.025534559 0.046483863 0.017278943 -0.049549937 0.0011713132 0.039960597 -0.0271559 -0.0012469515 0.04415982 0.033180322 0.0026991852 -0.035809934 0.017765034 0.009357549 0.035629462 -0.042679407 1.7248094e-05 -0.0448426 -0.006660592 -0.048327185 0.022468302 0.008087836 0.049924206 -0.04894606 0.031738374 0.048131194 -0.020291805 0.0031929016 0.0014228225 0.024712954 0.037598718 -0.007474445 -0.0055822246 -0.020642567 0.047214318 0.00095238537 -0.0007372275 -0.033998027 -0.014237296 -0.03427531 -0.028674996 -0.031009603 0.022257809 -0.0006325133 0.02121364 -0.0431945 0.0017052293 -0.009233821 0.012523424 -0.042840984 0.048703525 0.027080107 0.037028875 -0.00023277849 0.039306853 -0.021991873 -0.04796591 0.0267287 -0.029646039 -0.015924238 -0.044232357 0.038254965 -0.0423908 0.029066566 -0.024216592 0.034337882 0.030361127 -0.040973745 -0.029163087 -0.02196294 0.01856326 -0.014881741 0.034197774 -0.03614514 0.004153777 0.043474387 -0.034832932 0.0016434081 -0.045381047 -0.044197977
days 0.029291485 0.017233621 -0.033797063 0.0098994 -0.018854892 -0.042335857 -0.035780847 -0.0010993108 -0.03408563 -0.018809414 0.034000997 -0.023448944 -0.03955724 0.04208615 -0.043038666 -0.046489548 -0.0015424266 -0.040147673 0.002694644 -0.036593925 0.025232445 -0.048948683 0.01368079 -0.039390326 0.005477883 0.031589832 0.04575062 0.042538475 -0.0011351928 -0.013976 0.028730158 0.011279918 -0.04296278 0.001681935 -0.043145623 0.005012609 0.008076251 0.01224675 -0.01889931 -0.0334525 0.03705627 0.024713662 0.017517652 0.006896436 0.037013378 -0.041707575 -0.047937836 0.012420438 -0.017054666 0.04732832 0.037413362 0.005295921 -0.022603774 -0.005915761 -0.041402113 0.045710627 -0.025208462 0.018484775 -0.010391213 0.011947047 -0.047166467 0.040825572 -0.019100523 -0.00065751 -0.044689775 -0.028653039 -0.02971964 -0.012645315 -0.023212016 -0.027952516 0.021041695 -0.0021467693 -0.020877242 0.0012027249 0.013024155 -0.04055182 -0.011229195 0.03769472 0.046538938 -0.014664125 -0.017548561 -0.01826781 0.047117878 0.030045185 0.03601514 -0.026500905 -0.026720418 -0.02023524 0.015402857 0.037608493 0.018831123 0.0020944253 -0.00023981184 -0.014412224 0.02920555 -0.04489882 -0.032026816 -0.0016524568 0.028235521 0.031455103
– -0.0028052926 0.014335144 -0.03416554 0.008618165 0.024916422 -0.016527034 -0.014623154 0.034609947 -0.021352602 -0.0206702 0.0041343346 -0.0015282631 -0.024525715 0.016305055 0.028168466 0.0050330535 -0.00012558699 0.020970646 0.045350526 -0.014552057 0.032972004 -0.0445846 -0.037224483 -0.007089723 0.025468398 -0.038655173 -0.04482758 -0.049935997 0.008852042 0.026932482 1.3969839e-05 -0.0014474876 -0.036268294 0.02761269 -0.033282593 -0.027566576 0.04154123 -0.03536906 -0.011935152 0.0027514473 -0.04084481 0.0061223395 0.044977162 -0.026885439 0.03143469 -0.046513584 -0.031670526 -0.0032912605 -0.0021055453 -0.043996193 -0.037772477 -0.03141723 0.03248242 0.020545278 0.024079386 -0.0045605674 0.03910004 0.01920681 -0.03749913 -0.031512998 0.04625008 0.022646222 -0.014291573 0.032309923 0.027552333 -0.035289012 0.026486922 -0.031199992 0.04408307 0.0065787435 0.022714686 -0.0467312 -0.04121852 0.011447944 0.015386235 -0.01744008 0.019488525 -0.023326064 -0.02824117 0.015378784 0.03584123 0.03336594 -0.020424187 -0.015347876 0.013757754 -0.03056823 -0.008860983 0.047916267 -0.03852873 -0.017042696 -0.0029437542 0.011126004 0.03802116 -0.01609838 -0.015269496 0.0057434924 -0.022607839 0.01135125 0.011208415 -0.030229045
are 0.025931481 0.023109447 0.044044163 0.015909638 -0.04445243 0.04387002 0.016397487 0.0034871697 0.03323925 -0.018211257 -0.014152039 -0.04663825 -0.028108085 -0.018151678 0.029884528 -0.034457706 0.021125901 0.016088177 0.008662067 -0.025612092 -0.025281418 0.008032478 -0.030655563 -0.034169734 0.014221158 -0.013077568 -0.035647582 -0.03448423 0.027076904 -0.047824204 0.021714296 0.03495354 -0.047916878 0.012047578 0.03007767 -0.021148026 -0.036195837 -0.01884438 0.025444996 0.025558043 -0.047043968 -0.026493466 -0.008349348 -0.025352597 -0.0075812824 -0.02882365 0.017981496 0.016720105 0.014020529 0.044433866 0.037298705 0.021955263 -0.036761083 0.019242313 -0.03495171 0.0277141 0.014676642 0.009883702 -0.019783784 -0.016902387 0.046313573 -0.02141117 0.019551206 0.02965993 0.0047861338 0.037747312 0.008454621 -0.042517472 -0.0436355 -0.04533514 -0.018872691 -0.044263672 -0.007460475 0.03598083 0.012302447 0.02780861 0.031933222 -0.03799665 0.028647449 -0.02078985 -0.039443504 -0.027528083 0.020177532 -0.0131418 -0.0059198253 -0.007914029 -0.0034787282 0.026221048 0.009905029 -0.008218706 0.029750455 0.04725704 -0.023725903 0.034781788 -0.012207471 0.026918206 0.048367348 0.0012321696 -0.020259703 0.025184955
viruses 0.049071718 0.037138525 -0.04894955 -0.013935663 -0.037657022 -0.045053493 0.02245802 -0.0150005445 0.007374488 0.04417659 -0.039413918 -0.042982806 -0.008975755 0.011553861 0.01613934 0.0036377683 0.027580056 -0.017872024 -0.036267042 -0.008310676 -0.027765954 0.037854638 -0.01562927 -0.03887534 -0.010860778 -0.03810332 0.03722905 -0.02555424 -0.0140343085 -0.02014271 0.0032830015 -0.0055540577 -0.016592003 -0.023843622 -0.008355081 -0.039656747 -0.004136514 -0.047261715 0.04084159 -0.0089450255 0.0093640685 -7.804483e-05 -0.02015357 -0.021545483 -0.034970306 0.036239777 0.045472924 0.017448973 -0.04850935 -0.010107327 0.03494397 -0.042798318 -0.03236716 -0.029460406 0.007915329 0.017978754 0.00043569878 -0.0067776553 -0.028684843 0.0036961436 -0.030818522 0.019528415 0.02270076 0.009902168 -0.005306948 -0.030597199 -0.016187537 0.027842823 0.026335541 -0.02964325 0.017072681 0.004271161 0.011285268 0.0451303 0.023184095 -0.026790345 0.021298733 0.010934494 -0.040168595 0.027875293 -0.0047554 -0.024554133 0.0016841292 0.033408154 0.02418169 -0.04635576 0.02269807 -0.04988421 -0.019993806 0.002206754 0.038432125 -0.0468024 0.0063099265 -0.02729392 0.002919685 0.03611544 0.00743711 -0.00047590584 -0.019554853 -0.018610813
shorter 0.03923816 0.042470407 -0.03247662 0.028027091 -0.027154421 0.010917556 -0.025457812 0.028201077 0.011885773 0.04549152 0.010459233 0.008057237 0.01887894 -0.012829673 0.009890594 -0.008085214 -0.0074135773 0.027132545 0.010228276 -0.035156917 -0.012917757 -0.014838766 0.023906004 -0.014201857 0.024366703 0.04208764 -0.026896918 -0.026257014 0.04446921 0.027477238 0.039734494 -0.01763023 -0.037352633 0.015631761 -0.026407529 0.019656334 0.026184965 -0.049749136 0.023761872 0.043937 0.023865793 0.049885835 0.009713948 -0.033980012 0.0021780021 -0.016403355 -0.008025251 0.014424432 0.003568519 0.0019603744 0.0028763898 0.025832955 0.016281296 -0.027987992 -0.04881556 0.01066383 0.0014380924 0.033398475 -0.040487982 -0.0058191195 -0.03682383 -0.026890863 0.037937175 0.044902395 -0.033491947 0.048285794 0.029692952 -0.0040569194 -0.040494084 -0.019502461 0.021822605 -0.02240163 0.037921343 0.009516321 -0.04386146 0.037474524 0.040363047 0.043578986 -0.0022959597 0.028574023 -0.030253721 -0.041291237 -0.006354522 -0.02984643 0.016070675 0.007118512 0.0041633956 0.030898836 0.0051718466 -0.03134592 0.049118605 0.04327712 0.004347991 -0.009811331 -0.018182121 0.040902425 -0.047239054 0.01001557 0.029328112 0.034334492
from -0.040075492 0.037048224 -0.019374503 0.036731493 -0.016343523 0.017685797 0.0013710856 -8.368492e-05 0.016158286 -0.036927365 0.020085823 -0.03607128 -0.012841929 0.0015881285 0.038599078 -0.03977705 0.01553664 0.014667515 0.042107213 -0.04226892 0.02162284 -0.038886987 0.0382233 0.030317914 -0.02098167 0.021600608 0.0063042752 -0.005377911 -0.0069452412 -0.00022053719 0.035567824 0.047471475 -0.017055117 0.026564036 0.022365782 0.035327736 0.039135937 -0.035138167 0.027358282 0.011096466 -0.047104444 -0.048822224 0.023522187 -0.020602096 0.010664105 -0.04089763 -0.03409772 0.00509708 -0.02519629 -0.021644307 -0.02585714 0.01877356 -0.009265088 -0.032969464 0.008689154 -0.0430182 -0.0039758086 -0.012904026 0.019447256 -0.041503023 0.012000609 0.00669273 -0.04740391 -0.040409792 0.042730365 0.02233613 -0.0060258396 -0.039138306 0.04256228 0.03222784 -0.04730294 -0.013007678 0.003902316 0.02029251 -0.024975156 -0.023077656 0.020949412 0.023160446 0.00576967 0.037517894 0.032489587 -0.009197164 -0.0033806674 -0.015770495 2.2687018e-05 -0.0074997544 0.007268835 0.044977967 -0.014811385 0.049665894 -0.022841645 0.03945953 -0.034794964 -0.026823461 0.04206978 0.021927778 -0.0137492195 0.0014244318 0.009435475 0.028191078
appearance -0.010685444 -0.04155202 0.016255323 0.011514269 -0.014854562 -0.005545713 0.020171251 -0.035904657 0.012875188 0.044362273 0.029113617 -0.0037738308 -0.009689175 0.01842909 -0.005274903 0.0039477237 -0.039024163 0.030905556 0.0077538863 -0.022048771 0.020430971 0.049376044 -0.01369258 0.014032636 -0.010523487 0.0334914 -0.016077388 -0.04293696 0.014139388 0.0105882995 -0.008278061 0.04135782 -0.028346432 -0.026670456 -0.043408345 -0.0034806505 0.010475598 0.0046612844 -0.03002131 -0.008954715 -0.001071848 -0.026949717 -0.001773499 0.03488406 -0.020134306 0.036864165 0.03849903 0.018998865 0.03739475 -0.012515176 0.034227517 0.017558102 0.041950453 -0.013124384 0.0012351163 -0.02532059 0.020201731 -0.010303713 0.0159995 -0.012474608 0.010804832 0.040309522 -0.024479998 0.0070269816 -0.0028992891 -0.016370215 0.01855335 0.038417522 0.039602462 -0.00057591125 0.025849674 0.014437985 -0.03410529 -0.025437439 -0.01879933 0.01584066 0.009301376 -0.035023235 -0.04342699 -0.0016582124 -0.023359621 0.012971807 -0.011004068 0.012864601 -0.027944291 0.01221665 -0.0009608269 -0.046094395 0.006680526 0.046754625 -0.007316746 0.020271663 0.015952025 0.03305501 -0.04434203 0.020703498 0.011722278 -0.021853244 0.006365858 -0.039162017
symptoms -0.029603614 -0.018730782 -0.034423362 -0.041345157 0.032809224 0.0381105 -0.010232557 0.023280632 0.0384419 -0.004222464 0.0434875 -0.044131458 0.021770481 0.014957342 0.005610071 -0.04594444 -0.016652644 -0.009181 -0.03543242 0.029247198 0.031936277 -0.04826082 -0.022572279 0.021826874 -0.016027939 -0.020140922 0.04901186 -0.04356102 0.04267564 -0.017989673 -0.0140093565 -0.027144194 0.04990382 0.04491878 -0.03650924 -0.03446244 0.009995043 -0.035233665 0.038464095 0.029688764 -0.047777187 -0.0037478693 0.004466582 0.01107242 0.044809464 -0.021221101 -0.009649754 -0.04509156 0.047579434 0.026727546 -0.003172446 -0.014980257 -0.00097084045 0.015082207 0.028026585 -0.02457372 0.04630882 0.013557959 -0.013266277 -0.048144557 -0.009251844 -0.014226176 0.0037293918 -0.0006309524 -0.0020656586 -6.086752e-05 -0.02596264 0.04578862 -0.03136331 -0.03858924 -0.015577007 -0.017842185 0.0053297877 -0.024207521 -0.027057184 -0.027045822 0.00078814104 0.029768799 -0.022695065 0.024755005 0.0042641647 -0.046465065 -0.013201274 0.029648248 -0.0098358765 -0.024078524 0.013264742 -0.034610927 -0.009268783 -0.007589899 -0.011017084 -0.047303464 -0.045531835 -0.0019013062 -0.049697377 -0.011877488 0.04049987 -0.023170078 0.01746497 0.0012464039
while 0.035019223 0.04467814 0.02555735 0.015268054 -0.0352286 -0.033394266 -0.0033831224 -0.018328808 -0.024358321 -0.0141675845 -0.023880696 0.03190637 -0.02353772 0.038889576 0.015456263 -0.027758384 0.030721452 0.011888564 -0.027865816 -0.047859777 -0.009706784 0.009286571 -0.006494902 0.0039546005 0.040904973 0.033948097 -0.035582326 -0.01183771 0.04939321 -0.034745265 0.03270677 0.048042644 -0.048171546 -0.04760883 -0.02889253 0.0426904 -0.035118617 -0.04806888 0.022170436 -0.007606566 0.008824635 0.033023264 -0.035311986 -0.042204272 -0.04973786 0.047102157 0.044742372 0.0458755 -0.007786773 0.01895858 0.018673372 0.016448107 0.0083315 -0.02153585 -0.007747244 -0.033539094 0.01622143 0.02061044 0.018580507 -0.028254366 -0.016619243 0.019532908 -0.021721972 -0.004810583 0.033259418 -0.031409882 -0.01621423 -0.027593767 -0.028999079 -0.048496354 0.024932776 0.033868756 0.0007195957 -0.0065577626 0.035618197 -0.01794511 0.038012516 0.03000829 -0.0019479021 -0.03444017 -0.025819136 0.015176181 0.009954296 0.04556859 -0.039455842 0.0061565153 0.016715083 0.013271797 -0.04796624 -0.039394725 -0.0471532 0.014951158 -0.039330147 -0.020910596 -0.021274244 -0.013407528 0.019576814 0.044088427 -0.019574905 0.04769447
3 -0.03285356 0.037798192 -0.01917541 -0.035885192 0.031403888 -0.025841475 -0.040481996 0.033098582 -0.032408226 -0.0060240254 0.00053779036 0.004877411 -0.048510768 -0.04721421 -0.0063541904 -0.023550928 -0.027055657 -0.026558256 -0.016520418 -0.04094733 0.011986993 -0.010311879 -0.022525776 0.039454434 0.046369884 -0.030143583 -0.022935105 -0.0061879866 0.03743959 -0.022160543 -0.048360635 0.026947442 0.008343279 0.041968968 0.042839874 0.00049059466 0.04526781 -0.028704798 -0.024223818 0.0068222396 -0.02668109 -0.006892778 -0.007149659 0.025303576 -0.027234733 -0.02351663 0.0030002221 -0.037052084 -0.028502906 -0.0018803477 0.035053495 -0.044200003 0.042492416 -0.00097458437 -0.037446808 -0.020430112 0.045359638 -0.038301814 -0.022554958 0.03720093 0.044847477 0.030592833 -0.0016952641 0.03559244 0.01613165 0.01841319 -0.047545817 -0.04449916 -0.04760735 -0.03601054 0.003717579 0.0057003982 0.024793733 0.022664431 0.03130125 0.02820133 -0.013967037 -0.0028391108 -0.00147916 0.00049380213 -0.023645652 0.04846171 0.006356217 -0.03973005 -0.045586314 -0.040321242 -0.010388423 0.025853965 -0.01947974 -0.047567166 0.0024302118 -0.040804565 -0.043547284 -0.04872712 -0.016885947 0.042780194 -0.03938557 0.018312756 -0.049011182 -0.01459825
this -0.037891936 -0.0490924 -0.011138938 0.0056117177 0.04244793 0.042097237 -0.029987205 0.030039381 0.0025049224 -0.025278283 -0.0066788793 0.0063679703 -0.030055298 -0.0046391487 0.002377905 0.03645322 0.036430683 -0.011028517 -0.0053658597 -0.0013526082 -0.024293864 -0.0366652 -0.010168672 0.016241219 -0.02885834 0.021769535 -0.01829977 -0.025208557 0.012777928 -0.046163738 -0.023304487 -0.019349588 -0.037939586 -0.0046214946 0.015395191 -0.01045122 -0.031421617 0.036359716 0.031135228 0.0077179186 -0.00045128912 -0.026330603 -0.037978042 0.027418043 -0.03979268 0.027400743 0.047860924 -0.010767065 -0.033917047 0.022938792 -0.030093491 0.006450247 -0.008437086 0.035596255 0.019149054 -0.04382367 -0.017400682 -0.008248102 0.0036617145 0.009331405 -0.016715467 -0.045348395 -0.034554493 -0.009268165 -0.017382108 0.019205477 0.01128038 -0.008027293 0.049560096 -0.023275495 -0.0038976558 -0.014662396 -0.026776446 0.02857497 0.013821591 -0.022537697 0.010668445 -0.0020400658 -0.042972993 -0.020888615 0.048740838 0.014006648 -0.013864376 -0.032195292 0.0076714978 -0.038252484 -0.030752039 0.019196857 0.03092495 0.0060862303 -0.030239463 0.033164386 -0.005208086 0.025111768 0.03714801 0.0049576163 -0.041998077 0.013540175 0.03628012 0.034261
that 0.009988178 -0.012033116 0.006646216 -0.027878845 -0.02705971 -0.031793583 -0.029795242 0.045413267 -0.049981188 -0.015470482 -0.002538599 0.01074966 -9.534508e-05 0.035061095 0.045743156 0.019765545 0.001677502 -0.01983794 -0.036807917 0.034602117 0.04139412 -0.0135861635 -0.015454195 0.0070148595 -0.035226714 -0.045163848 0.03990822 0.04053164 -0.02389331 0.0016983375 -0.031462267 0.04728799 -0.013742745 0.015016127 0.014694836 0.027998183 -0.00482136 -0.03342407 0.014658999 0.04386344 -0.020907164 0.03343605 0.01932815 -0.01811304 0.0019940734 -0.019840121 0.021939587 0.04521242 0.0070885196 0.04480591 0.004648518 -0.04220537 -0.003070306 0.0028474443 -0.036353815 -0.019511009 -0.0375409 -0.0151438005 0.02540857 0.046108667 0.0047188513 -0.0458118 -0.0207016 -0.004154362 -0.031000877 0.0003344901 -0.026057959 -0.015649904 0.042378787 0.0011579171 -0.022113562 0.046703424 0.045575354 0.015079524 0.027266871 -0.04838555 0.031329367 0.047461998 0.02310909 -0.0060169324 0.043584514 0.012677226 0.03213005 -0.008492697 -0.04068526 -0.018854309 0.025640156 -0.035566043 -0.048091996 -0.02721013 -0.03792565 -0.0047115795 -0.009785425 -0.028008474 0.030687321 0.00788448 -0.036318194 0.024670493 -0.029250002 0.02700505
can 0.0076730624 0.01703484 0.04216672 0.016414057 -0.019872595 0.016373578 0.023878876 -0.039631903 -0.017697502 -0.027615333 -0.0038024671 -0.012889646 -0.009882104 -0.04953438 0.01606157 -0.012376558 0.024074089 0.0022373907 -0.04311471 0.03061838 0.024933469 0.035645727 -0.0433457 -0.03126037 -0.0075485483 -0.043446697 0.011680018 -0.042758968 -0.04332429 -0.0018908493 0.016019475 0.039036956 -0.016779326 0.036929894 -0.019038666 -0.0063483715 0.012004245 0.0041058436 0.0044954307 0.044431712 -0.047249712 -0.016377628 0.004653476 -0.037416734 0.022466484 0.03714359 0.01807404 -0.008226264 0.03213707 -0.02252022 0.02268995 -0.022695733 -0.022136403 -0.035930265 -0.0038388 0.0025594719 0.044588063 -0.037704658 -0.038773023 -0.011472654 0.013904918 0.01783416 0.004731536 0.040237214 -0.036219347 -0.010538958 -0.0076934323 0.0098800175 -0.017851971 0.002320826 0.0054327734 -0.0008512512 0.042694833 0.004947506 -0.030803109 -0.018816745 0.028898288 -0.04694531 0.016110782 0.03959124 0.028438155 0.036620054 0.029234003 0.033750203 -0.010124408 -0.0462366 0.016209338 -0.047399413 0.012936149 0.033883642 0.028359856 0.044608418 -0.010637462 -0.03761413 -0.038029004 -0.006158948 0.0073732957 -0.04333048 -0.0013206005 0.040607024
in -0.04906876 0.02787174 -0.021475721 -0.03773904 0.035570536 0.015706826 0.042936 -0.0106007345 0.0049619786 0.009957291 0.002981495 0.024724867 -0.026763404 -0.017334867 -0.0024017915 0.013409976 -0.029931176 -0.023010958 -0.012087263 -0.04252323 0.02080578 -0.035673786 0.01982535 0.022017006 -0.029054655 -0.0026515946 -0.034686126 0.037305567 0.028822545 -0.030913413 -0.014536381 0.04312073 0.0039857514 0.025868665 0.04838575 -0.030184258 -0.031918243 0.044148255 0.027450766 -0.03306204 -0.008047521 0.038399566 -0.03869604 -0.007692624 0.027595151 0.02151804 0.020463679 -0.030396892 -0.045559634 0.038450647 0.03823289 -0.0042757876 0.011955749 0.031910095 0.026645962 -0.02820971 0.009360302 0.00021792576 0.032021966 0.019277487 0.019099321 -0.047343172 0.047336426 -0.043511033 0.021208826 0.044870283 -0.027658332 -0.004639007 0.018571544 0.025226187 0.016176965 -0.025979066 0.023819376 0.008324169 -0.048283007 -0.024729192 0.015588868 0.023429897 0.02150521 -0.0026553757 0.024712037 -0.01311972 -0.042448353 -0.016504586 -0.0255772 0.036475327 0.044119444 0.019179735 -0.039903928 -0.02214457 0.005751144 -0.04843998 0.016986039 0.049943436 -0.022101391 0.007839549 -0.019041527 -0.011834335 0.024190735 -0.034736563
major 0.031706724 -0.019485427 -0.038018454 -0.000942491 0.021830115 -0.0075790174 0.033814695 -0.04875196 0.015681934 -0.0074040666 0.025913786 -0.035636224 0.04265224 -0.02662524 0.043367933 0.008025371 0.004755724 0.0425527 0.0031673536 0.048335444 0.042701174 -0.04914471 0.035595108 0.0137873925 0.048210133 0.0010533556 -0.016734075 -0.02133876 -0.010580383 -0.002266191 -0.023508763 -0.02922274 0.01694021 -0.014156997 0.025272135 -0.024541963 0.019014146 -0.011675261 -0.02512076 0.006947793 0.02177621 0.03279605 0.02388047 0.032427635 0.03431144 -0.040531587 -0.043958474 0.037955012 -0.014021419 0.006803382 -0.0080321655 0.02197108 -0.040479183 0.016358364 0.035218727 0.0039734617 0.025229562 -0.016365528 -0.014999248 -0.03075838 0.025347803 -0.04289657 -0.023340274 -0.023577368 -0.001320459 0.022499029 0.024766434 0.015675988 -0.01918961 -0.0038427934 0.009105466 0.03599942 -0.01586913 -0.037486244 0.0070344694 -0.024048591 0.0106109865 -0.0049314983 0.030383814 0.016304817 -0.0310202 -0.03917383 -0.024262488 -0.04126606 0.016236547 0.02255458 0.005490519 -0.01273017 -0.0032797344 0.043665294 -0.030848933 0.022947047 0.002532769 -0.03427936 -0.022569943 -0.04322193 -0.0482468 0.0021381155 -0.019900644 0.006265413
driver 0.0017682686 -0.03490317 0.0025044084 -0.047082067 -0.0025083534 0.02614497 -0.0018843524 0.02235422 0.04696547 -0.04763812 -0.041496217 0.035326127 -0.045260023 -0.010457158 -0.013272297 -0.011599265 0.00831734 0.032741312 0.037227068 0.041596543 -0.009339225 -0.044890236 0.028729666 0.0013498552 -0.013217486 -0.04464301 -0.01728531 -0.035166763 -0.02505144 0.04602542 -0.007995941 0.01510701 0.02944373 -0.04064988 0.018493246 0.01896483 0.04252572 -0.0020859838 0.007179439 -0.022288 -0.03506259 0.026912462 0.031978164 0.045406368 0.027937297 -0.0062658414 -0.025215734 0.03791188 -0.034945358 0.01461545 0.011968873 -0.03632928 -0.04781362 -0.022748196 0.038056497 -0.0067028888 0.027958069 -0.015389871 0.040743504 -0.041152872 0.022420619 0.032653343 0.023329522 -0.044000495 0.04077388 -0.046679378 -0.0142859705 -0.030008484 0.0032122135 -0.039820004 -0.008425474 -0.0048671253 -0.030266989 0.037402812 0.028634194 0.030621339 0.009317327 -0.03809612 0.01965246 -0.045488086 -0.009959232 0.030277755 0.00032972172 -0.04688083 -0.020408928 -0.001743637 -0.031001914 0.031508986 0.043492604 -0.025203288 0.009195615 -0.028575027 0.04371735 -0.009742487 -0.015006065 -0.027941061 0.0053426027 0.033669237 -0.016532242 0.0023879893
number 0.020116236 0.004231192 -0.048858322 -0.031575225 -0.021203017 0.018045496 0.006735705 0.028494325 -0.040061414 0.030692842 -0.0023088828 -0.024839843 -0.01738156 0.027605664 0.042953063 0.020221386 0.014447082 0.039972547 -0.03795593 -0.017065383 0.027595293 -0.023710692 0.037987042 0.018272724 -0.027168501 0.024996374 -0.01667558 0.0024108663 0.048822787 0.029540885 -0.0074191093 0.0021328703 -0.029403497 0.0130241625 0.01301546 -0.042773213 -0.021508051 -0.0076853037 0.028650653 0.031548392 0.044071082 0.0003972277 -0.030845571 0.04085878 -0.04049213 -0.038642503 -0.012921523 0.030215468 -0.034599803 0.04527707 -0.038726162 -0.010510217 0.03729183 0.0010995269 -0.0033406243 0.03301764 -0.01854391 0.019586448 -0.01433333 0.021886412 -0.010717176 0.022721361 -0.042827036 -0.03449129 0.0068169013 -0.04438324 0.036984947 -0.013425529 0.046431135 -0.016234051 9.1694295e-05 -0.022677159 0.0049068704 0.014413726 0.008641005 -0.002248764 -0.039991807 0.043501426 -0.037504256 0.009073436 -0.018009506 0.002688013 0.03915869 0.047842573 -0.035541333 0.023346473 0.0013454333 0.015311267 0.0060921907 0.018752243 0.044987824 -0.021096421 -0.039066266 0.03940909 -0.023327673 -0.004489254 -0.00899633 0.046929073 -0.031016756 -0.03789798
2 0.027362082 -0.007561635 0.016197685 -0.012444258 -0.04994787 0.041491795 -0.00050253794 -0.0071487315 0.023995522 -0.047085714 0.02363101 -0.0008089654 0.031156112 -0.012533642 -0.021044958 0.026800763 0.036339115 -0.021676648 0.024465766 0.009724222 0.042365883 -0.008920632 0.012327731 0.016636956 -0.0071824193 0.012664188 -0.0062650554 0.033539142 0.0067261085 -0.02717774 -0.039185513 -0.02505343 0.030405905 0.012107026 0.029086899 0.037229788 0.016589496 0.032025244 0.013708841 0.019537952 0.03207488 -0.026376104 -0.012898374 -0.041600537 -0.02732662 0.044366505 0.045767937 -0.008342195 -0.0032743812 -0.03705702 0.026284587 0.033693064 -0.024681164 0.011661101 0.029488172 0.010918189 0.017655943 0.012530986 -0.01483047 0.03956263 -0.03397863 0.03877909 -0.029411435 0.049647402 0.0068427436 -0.048755694 -0.04335257 0.047841642 -0.03792598 -0.026721358 0.037803937 -0.02482295 0.009568773 0.038787458 -0.04313996 0.02009194 0.0019271858 0.0091182105 -0.022131884 0.029061507 -0.04312426 -0.033130217 -0.018438052 -0.038091265 -0.0011559837 0.008754395 9.7524375e-05 -0.03635807 0.024580967 -0.04145199 0.037242282 -0.04121121 -0.0076395385 0.04347494 -0.04398898 0.047703218 0.030113269 -0.02540574 -0.004454933 -0.033822216
speed -0.009989418 -0.004080415 -0.01911738 -0.025179792 -0.026441837 0.012722265 -0.00017789751 -0.02687186 -0.016245164 0.022772852 -0.0010832176 -0.03302299 -0.037563812 -0.023863185 0.044925716 0.044229534 -0.0029369965 0.040740494 -0.01157837 0.0077157393 -0.04758903 0.0007789135 0.004417002 -0.007186651 -0.04302279 -0.010902323 0.01808406 -0.022386098 -0.03317331 -0.008993648 0.0034519546 0.008860566 -0.04203657 -0.035337817 0.014503147 -0.0180686 -0.04859635 -0.025137877 0.028633427 -0.023084749 -0.04638697 -0.025891412 0.013994586 -0.004669644 0.0010169633 0.030023012 0.048589136 -0.049133267 0.03085133 -0.032776285 -0.049329806 -0.031496942 -0.027786303 -0.029297484 0.030185293 -0.044841647 0.005592048 -0.024247242 0.008772373 0.020766426 -0.033358775 -0.015098918 -0.036999084 -0.0047189593 0.026215602 -0.0430045 -0.026066614 -0.032495894 0.014102507 0.0011569038 0.030510668 0.040528525 0.013295006 0.03162365 0.04202229 -0.038077783 -0.005500257 0.01883516 0.02083427 -0.03401359 0.010109842 0.019864071 -0.0306574 -0.009424936 0.010695577 0.030580986 -0.021641279 0.031835485 -0.011290658 0.027757589 -0.033730377 0.036281195 0.027299356 0.025860522 -0.0036733635 0.016008507 0.014163997 0.004613079 0.0041275993 -0.012692738
an -0.028943015 0.010622881 -0.045292523 -0.019526565 0.038047407 0.04149357 0.0151566975 0.0033742897 -0.00072137266 0.029239405 0.024516616 0.03146139 -0.02666979 -0.022524191 0.018022109 -0.016773235 0.027398814 0.030009698 -0.043877184 0.0015868433 -0.04744525 0.0059219226 0.043613087 -0.011138476 -0.01733581 -0.011870932 -0.015679728 -0.02213763 -0.030322446 0.035976652 -0.00064587593 -0.041728757 -0.008357167 0.018075835 -0.022879792 -0.042757142 0.042037796 -0.033034254 0.011028171 -0.028983867 0.034828816 0.0047462694 0.00067317486 0.029874753 -0.004380524 -0.040198006 0.048001233 0.01964109 0.03895333 -0.041207947 -0.042961504 0.009050526 -0.018052686 0.007845629 -0.020097995 0.000835754 -0.016428042 0.021218445 0.04606856 -0.029945124 0.017067794 -0.02355243 0.02263752 0.03634206 -0.046924114 -0.008467186 -0.030497242 -0.047677625 0.037632454 0.011622332 -0.0014887564 -0.01971215 -0.047910392 0.041418064 -0.021133482 -0.023953736 -0.019741476 -0.04391035 0.044014182 -0.034334384 -0.037281953 0.030157592 0.019848112 -0.0098563805 0.026501004 -0.018456459 0.0093943365 0.036962163 0.048073675 0.03224868 0.026792351 0.012236714 -0.036827754 0.028361987 0.024335016 -0.037504066 0.008122124 -0.012900613 -0.009979844 -0.029056454
important 0.017854515 -0.010901559 0.045194637 0.0032644644 -0.035542715 0.035950568 0.021087442 0.041746166 0.005331777 0.023141276 -0.011550117 0.03649837 0.013263177 0.046236265 0.0310953 -0.019048322 -0.025322115 -0.016255341 0.0051993504 -0.041017972 -0.04753522 -0.012543011 0.005230628 0.012145031 -0.008079242 -0.011289097 -0.042641997 0.0074104555 -0.0105397105 0.01982892 -0.0099432245 -0.0045363903 -0.019400192 -0.0068353303 -0.047047723 0.01650307 -0.017688014 0.046498287 -0.047559213 0.012387622 -0.013715886 -0.006102003 0.03872775 0.034520235 -0.04230876 -0.021371722 -0.040795375 -0.022366941 0.041405234 -0.007143844 0.0041858554 0.049413417 -0.032572307 -0.019606698 -0.0016028881 0.002703596 -0.04962292 -0.00093547255 0.011103105 0.040329862 0.0042387247 -0.047801793 -0.0367617 0.03563421 0.04000565 0.035375986 0.0423632 -0.002694536 -0.013967015 -0.010150325 0.0039481297 0.002508808 0.016652633 -0.046555508 0.030967344 0.006271422 -0.021558154 5.4895878e-05 -0.03438499 0.03543124 0.025617186 -0.03354423 -0.024389995 -0.048735347 0.049556684 0.04510024 -0.025157655 0.026512135 0.0061480403 0.031223867 0.0018762462 0.03718603 -0.013380181 0.010311913 -0.028016055 -0.008862458 -0.0028460138 -0.035566043 -0.0022264123 0.006659426
point 0.0013949871 0.004486192 -0.031976927 -0.018073428 0.015128616 0.003927231 -0.0030069351 -0.04723679 -0.019978656 -0.018513262 -0.023407971 0.046649527 -0.027079452 0.0010465756 0.043015983 -0.029420996 0.0149268545 -0.019358754 0.025687184 0.044466887 0.016715672 -0.0419726 -0.045598127 0.01562525 -0.047725525 -0.0059826486 0.0077704787 -0.0048458576 0.020989012 0.014687542 0.029189315 -0.044999123 0.0030564554 -0.0062650815 -0.0032206997 0.045403767 -0.047054734 -0.02226529 -0.030295229 -0.009358633 -0.046962287 0.040216897 -0.047396373 -0.046061423 -0.048627257 0.0469399 -0.029303098 -0.01511886 0.005589258 -0.009888638 -0.01991719 0.018518675 0.022871304 0.048449468 0.011959385 0.023302618 0.044264223 -0.01581645 -0.0013445728 -0.025514318 -0.027296817 0.04631448 -0.01733043 -0.03921572 -0.0347267 -0.005424857 -0.008748949 -0.007667996 0.0045213327 0.024686862 0.04406133 -0.008956205 -0.030513262 0.049469713 -0.032385934 -0.040776253 0.03548343 -0.047686078 0.026184235 -0.049411725 0.04000212 0.04243404 -0.006700862 0.017343428 0.0062661394 -0.016925741 -0.043347087 -0.048630893 -0.02345953 -0.004177917 -0.011059143 -0.024056578 0.043426383 0.044331755 -0.019972956 0.031709697 -0.0099406615 -0.0025301464 0.033121478 -0.026563538
difference -0.025703967 -0.0071840286 -0.019423211 -0.041246556 0.006773997 -0.03980861 0.04908823 0.049124073 -0.033454694 0.017801989 -0.049307432 -0.018444885 -0.043609012 -0.03691914 -0.047066163 -0.01265844 -0.012883436 0.025765691 0.011263192 0.036660444 -0.010972749 0.029093478 0.039954115 0.04490162 0.044928644 0.01607443 0.018925343 0.028622832 0.0034206621 0.011610378 -0.0010722987 -0.036809824 0.027833942 -0.02447679 -0.004515242 0.03745948 0.017697994 0.029526081 -0.015999354 0.00068873167 0.038734782 0.042238545 0.03177652 0.04870588 0.007597994 0.027989034 -0.03970456 0.037525605 0.029668305 -0.020259941 0.018853176 0.025710035 0.014047895 0.031261478 -0.023761023 0.011791348 0.03407183 0.017145786 0.03993367 -0.039579272 0.004053034 0.017076794 0.0042873733 0.033869255 -0.047340788 0.02282102 0.0021900423 0.03215951 0.017629694 0.03593489 0.030709926 0.006526757 -0.009328555 -0.0065720454 -0.020288467 -0.020151163 0.03734794 0.010106694 0.042785417 0.04969747 -0.042852666 0.025791813 0.015943374 -0.02683643 0.04934783 -0.02702557 -0.047705974 0.017503623 -0.035342254 -0.031184291 0.039300445 -0.034112085 -0.038003493 0.03218552 0.010733008 -0.011893641 -0.024151182 0.048462097 0.004535176 0.0129545
two -0.045976866 -0.008926474 -0.027757395 -0.026888764 -0.015657365 0.003781844 -0.013499368 -0.016118847 -0.033567764 0.031276476 0.011107504 0.016701732 0.022974517 0.009272493 -0.0355546 -0.0039237626 0.04502852 0.011471547 0.030234609 0.04804224 -0.0056116357 0.022255268 0.020908605 -0.022568082 0.017858494 0.0022966154 -0.028144373 -0.04101647 0.044857685 -0.03957083 0.0009645708 -0.038217675 -0.02307955 0.0031919107 0.03236525 -0.047429573 0.029276159 -0.004068576 0.0070822462 -0.005904138 -0.03926619 0.014272425 -0.021740092 -0.03896594 -0.043092977 -0.018671561 0.014262471 0.024526265 0.026743244 0.024010334 0.036103178 -0.0068378933 0.005133055 0.036192883 -0.030570019 -0.029445363 0.02859037 -0.008038603 -0.005326353 -0.003727533 0.018596124 0.042498175 0.045553867 0.019470003 0.03276023 -0.01038792 0.021952357 -0.031802822 0.030641269 -0.029397463 -0.026768494 0.038874295 -0.02472173 0.048537944 -0.035018645 0.043066453 0.044983435 -0.021295 0.010695994 -0.01864804 -0.006845616 -0.04318706 -0.008636523 0.02535436 0.04197016 0.012784634 0.0016695261 0.0019778386 -0.046378292 -0.011275649 -0.022484804 0.019602094 0.0027511604 0.015473235 0.022131931 0.048920516 0.032759193 0.006135773 -0.014110576 0.0074714907
has 0.014292646 -0.040556002 0.004698299 0.044537116 0.04298575 0.025715362 -0.006591283 0.020746056 -0.005966641 -0.008763529 0.029945884 0.038021926 0.03486115 0.022519935 0.034145895 -0.010212921 0.0336543 -0.04042969 -0.023307705 -0.03350364 -0.00014928728 0.015080955 -0.044101324 -0.032710243 -0.025140239 0.04891068 -0.013669372 0.017705891 0.021403376 -0.023460044 0.018300924 -0.04988692 -0.023222744 -0.020355523 0.021693561 -0.042906653 -0.045882322 0.013316635 0.046106864 -0.011924148 -0.021186078 0.018058766 0.016560052 -0.032787323 0.010228954 0.04872204 -0.007802546 0.014535341 0.0010723248 -0.04922024 0.02791356 -0.020466758 -0.038437497 0.049541745 -0.026912976 0.047201324 -0.04042673 -0.00028469414 0.037430357 0.0023512617 -0.016375996 0.020518128 -0.045832183 -0.037137914 0.0151784085 0.041577432 -0.0022542365 -0.03073064 -0.005350493 -0.0026420727 -0.0012385026 -0.031706452 -0.004842542 -0.004243374 0.04823811 0.038601484 0.01277839 -0.003290616 -0.01471604 -0.003671933 0.038875673 -0.00133463 0.0019805208 -0.020862604 -0.0119329095 -0.047610473 -0.023877716 -0.021155154 0.030703213 0.034566905 0.045980837 -0.039337493 -0.01533135 0.039186243 0.010423206 0.0030302294 0.031425726 -0.0113563165 -0.04709834 0.021805394
median 0.033927526 0.04575247 -0.044312406 0.002664376 0.02049258 -0.039243687 -0.009907782 0.046221744 -0.046897877 -0.027896428 0.0061754957 0.010160364 0.030506555 -0.034280993 -0.020420372 -0.04793278 -0.024455154 -0.024064219 0.022799063 -0.035589196 -0.0064671636 0.018549804 0.042431418 0.038910512 0.01815224 -0.040706553 -0.03829359 0.033445265 0.044389512 -0.03847307 0.025928412 0.019267287 0.032507386 0.041507196 -0.029561138 0.0012857318 0.03206147 0.043762807 -0.016775332 0.039704647 0.026078973 0.03464396 -0.012008548 -0.015150141 0.028745975 -0.020435441 -0.021314561 0.03275604 0.024615292 -0.049540248 0.0030898824 -0.024858404 -0.0049769655 0.04676782 -0.005684186 0.004001282 0.04270376 0.032824863 0.032252435 0.015022922 0.021757636 -0.034766056 -0.039203346 0.019919682 0.030593488 -0.018591978 -0.019884884 -0.040383697 0.02557372 -0.037283637 0.031575385 0.025791433 0.009323515 0.023730282 0.049961176 -0.019321788 -0.022738649 -0.01944822 -0.036645673 -0.017055701 0.010665335 -0.042649187 -0.0028270595 -0.04586619 0.014879014 -0.034199014 0.016026441 -0.021726286 -0.03500595 0.04139744 0.04035375 -0.023196494 0.019711826 -0.025230695 0.0059391037 -0.019767785 0.00384425 -0.018116497 0.04228325 0.046169627
incubation 0.036363605 -0.004211951 -0.023522247 0.029736448 -0.028397346 -0.048888575 -0.035061765 0.008404531 0.045209277 0.021633003 0.029858712 -0.014629949 -0.043219995 0.03131299 0.023828212 0.046398547 -0.049875427 0.0029606596 -0.023066116 0.042401467 -0.0029217973 0.015902128 0.005037844 0.011693656 0.003885854 -0.049840927 0.0022150502 -0.03535874 -0.041749917 -0.021439482 -0.04383198 -0.03814404 -0.04579146 0.040617142 -0.04149183 -0.042542696 0.041148137 0.045531187 -0.023757517 0.046133015 -0.014178656 0.03124931 -0.014517151 -0.00662427 -0.005884003 -0.0032395124 0.041507374 -0.047002446 0.020924155 0.03374466 -0.044444885 -0.01069776 0.039604906 2.6214868e-05 -0.033666454 -0.023331417 -0.012700308 -0.049907982 -0.008456182 -0.019162549 -0.024805164 0.019836474 -0.0028105155 -0.0016032085 0.0017503276 0.012123764 -0.017783057 0.013228167 -0.0029448047 0.013676133 -0.028161133 0.024854291 0.03870872 -0.038159512 -0.04071957 -0.02797817 0.033036422 0.038269725 0.021363642 -0.03850174 0.013998959 0.024807062 0.015608955 -0.040560782 -0.025426436 0.034937788 0.01277924 0.046862315 0.024617877 -0.016077437 0.011678766 -0.028620541 -0.00518129 0.015438806 -0.026467634 0.0054943077 -0.032285333 -0.005243432 0.018836427 -0.020596338
period 0.028115343 -0.041841675 0.0013180599 0.019361127 -0.036671005 -0.0008479953 0.01682664 -0.04571667 -0.023281945 -0.047190975 0.03189851 0.044343088 0.008284807 -0.014508285 -0.049689103 -0.004169859 0.040459048 0.019151006 0.003549207 -0.023695981 0.01653241 -0.048840236 -0.016210545 -0.0030906908 -0.041919958 0.010398328 0.018178474 -0.018987918 -0.034805834 -0.018587671 -0.020652449 0.028884735 -0.017996453 0.0036387555 -0.029368376 0.026411284 0.0109905 -0.044585347 0.02729005 0.009040307 -0.045842852 0.02468567 0.04097737 0.025431465 0.011955798 0.04775056 -0.02662108 0.029405441 0.04571596 0.00801722 0.01654246 -0.032716952 -0.006914757 0.044556472 5.1632524e-06 0.035465453 -0.027304543 0.0024249665 -0.009068809 0.02251656 0.042614225 -0.02803917 -0.029053712 -0.046503928 -0.004158415 -0.0029032342 0.021038186 0.021449912 0.028421488 -0.032212663 -0.0028968565 -0.035822608 0.005313836 -0.047300626 -0.02426746 0.0010758415 -0.0041642897 -0.0007411353 0.027215574 0.036984038 0.03170413 -0.047857847 -0.0233351 -0.026809001 0.03156059 -0.042192817 0.04854424 0.035246406 0.0013391152 0.004089214 -0.03230963 -0.023950113 0.04419445 -0.043936588 -0.024332821 0.015852917 0.0424294 -0.015150644 0.022902336 0.0066002123
infection -0.021116376 -0.018569909 0.032418977 -0.00069784 0.03249811 -0.024646295 0.044970285 0.04720476 0.02905481 0.04492629 -0.0009048097 0.035495866 -0.012144696 -0.0013582334 0.043184195 0.0029563084 -0.021397674 -0.005703997 -0.020364344 0.022598866 0.03407416 -0.039501667 -0.018415727 -0.0065281168 -0.028232146 -0.020181537 0.041313756 -0.002085209 0.045806054 -0.03333508 -0.032872844 0.038195554 0.013371993 0.043881845 0.023918796 0.04342163 0.0028026924 0.00030438974 0.010276794 0.0062277317 -0.0032801628 -0.016992413 -0.015161287 0.01285005 0.041234743 0.048695613 -0.009272028 0.0056455024 -0.02029407 -0.047213282 -0.014666963 0.044124816 0.033540215 -0.02462846 0.015919913 0.010688949 -0.045455873 -0.024541093 0.006688416 -0.0043881647 -0.012015544 -0.042581584 0.0151031725 0.04329581 0.034602705 -0.04543171 0.018804755 0.0052412525 0.0018765107 -0.02479415 0.00030995533 -0.02357955 0.020657491 0.0029384606 -0.017855406 3.1184405e-05 -0.04981407 -0.04989593 -0.049695134 -0.0065871254 0.020003628 -0.0056465752 0.011907898 -0.046449292 0.013229679 -0.013233282 -0.033269513 0.005687095 -0.043318726 -0.048226394 -0.03301175 -0.0010238066 0.02542824 -0.036654603 -0.027693128 0.018522684 0.027748372 -0.038434077 0.037608873 0.045900393
successive -0.023241807 -0.001600109 0.009637475 0.029825184 -0.029279495 0.008934509 0.019501094 0.0023980513 -0.015147734 0.0009202473 -0.033840455 0.048662078 0.039655153 0.0004899129 -0.0049532056 -0.024747157 -0.025813162 0.0033417717 -0.03223473 0.0027812123 -0.002850473 0.04510838 0.047734234 -0.023077166 0.03755195 -0.014749981 -0.017402839 0.034188878 0.02995361 -0.010164954 -0.032404292 0.010791611 0.005610753 -0.03237133 -0.021399593 -0.042690303 -0.016379166 -0.0053340197 0.049342524 0.030537415 -0.026324809 -0.031911753 -0.03306645 -0.023570776 -0.032414533 -0.0150825605 -0.036788177 0.040517878 0.043202426 -0.0054432154 -0.02564453 0.020874832 0.046818886 -0.043129552 0.035729084 -0.04703201 -0.032084513 -0.028015971 0.0036038645 -0.014855288 0.023951303 0.023577403 -0.045153882 0.044243578 0.01346897 0.008736301 0.009118043 0.0018661134 0.046831477 -0.03309059 0.03597809 0.037096206 -0.03567661 0.028001297 -0.0175079 0.040902052 0.040048625 -0.048300862 0.014272857 0.042769697 -0.011416186 0.036282983 -0.031817332 -0.03718672 -0.02548647 0.0040357597 0.0221424 0.015475277 -0.0039249435 0.04494815 0.016047064 0.034317266 -0.022652471 0.012466598 -0.0036745071 -0.016465366 0.024277698 -0.047157656 0.022738066 -0.043982483
cases 0.0039800517 -0.024439072 0.024393465 0.037870478 0.00083307177 0.037106242 -0.0463408 -0.025001109 0.003563773 -0.005045511 -0.015689563 0.034364846 0.020019446 0.032404575 -0.00109718 -0.0050626397 0.0433547 0.026205543 -0.027455736 0.025214124 0.01561233 0.011156548 -0.047674477 0.030793358 0.0020321123 -0.032857195 -0.015851058 -0.033209644 -0.032664467 -0.035747897 -0.036401413 -0.005861141 -0.02683909 -0.014220487 0.0015955195 0.028909337 0.03294206 -0.0329507 0.018946197 -0.020437777 0.04567119 0.04654951 0.023459125 0.0010677949 0.025484849 -0.012939908 0.021317337 -0.011375915 -0.02316475 0.048216175 0.031745885 0.014768783 -0.0445987 -0.03243965 0.01519021 0.027803946 0.045253444 0.041009057 -0.03136847 -0.030837238 -0.015355181 0.015521195 0.043226305 -0.031690575 -0.0081701055 -0.015496992 -0.015597366 0.039490018 0.045047496 -0.019098127 -0.014490508 -0.017600633 -0.045535397 -0.015027892 0.010496773 0.04239854 -0.013994049 -0.0047308803 0.04669906 -0.049744915 0.030555416 0.0024132356 -0.046936106 0.04654951 0.03823943 0.01603217 0.0036012642 -0.00042789057 0.033723366 -0.04534316 -0.0028069615 -0.048243653 0.023062002 0.028861586 -0.034226168 0.003128089 0.008216023 0.004852701 0.010912754 -0.0044442043
estimated 0.033089314 0.014871385 0.034597624 -0.01888653 0.0065412894 -0.021978533 -0.032597378 -0.023990452 0.0011189803 -0.025366426 0.04624882 -0.04676639 0.043455448 -0.034033883 0.047092047 -0.010431457 -0.031444646 0.026667882 0.02384993 0.043374132 0.0014739148 0.038534272 0.020859849 -0.033316135 0.03811263 0.036366332 -0.006004669 -0.025578702 0.0013068318 -0.023229826 -0.016750753 0.021625068 -0.028271258 0.025266003 0.049703743 0.013032589 -0.033611357 0.040222313 0.044196654 0.03683393 -0.0012819543 0.033810545 0.040562857 -0.0073774345 0.024559546 -0.008534145 -0.0047449693 0.03237423 0.030730937 -0.0015202984 0.021823 -0.02585106 0.036077652 -0.0026321039 -0.028515566 -0.031627715 -0.0035099015 -0.044118024 0.026319217 -0.002366744 -0.04484594 -0.04036641 0.0325084 0.009192012 -0.024759902 -0.046542764 -0.008884478 -0.037088253 -0.016828753 -0.021462465 -0.0018730871 -0.012519039 -0.046661567 -0.011550367 0.044920053 -0.02573663 -0.0056656376 -0.031050384 0.017534856 0.026996087 0.034251917 -0.049453367 -0.009488177 0.017840173 0.0015236139 0.02663434 -0.023089683 -0.025226844 0.040721428 0.046321284 0.023926798 0.011375941 -0.007534992 0.025378708 0.030344713 -0.0056786165 0.028285656 -0.013329901 0.037713278 -0.021807576
6 0.0037366524 0.011703599 -0.028495193 0.04847579 0.039021466 0.025913026 0.027527835 -0.047478247 -0.032831885 0.04366516 -0.017053984 -0.010894299 0.019589815 0.014571551 -0.009980332 0.012236666 -0.03794179 -0.006359659 0.02944528 0.039846968 0.034809697 0.028627072 0.04483852 0.02943262 -0.021695817 -0.021716893 -0.03832432 0.0449428 0.026350368 -0.018777216 -0.0058689713 0.0069335587 0.04034057 0.01783837 -0.0022336952 -0.026577462 -0.04174143 0.02824216 0.037837837 -0.003832318 -0.021055793 0.045026843 -0.039836276 0.039182153 0.039085414 0.006263554 -0.03505087 -0.006799318 0.03947479 -0.035590995 -0.027624642 -0.022672271 0.04426155 -0.0034665465 -0.003916502 -0.010612071 -0.034340836 -0.041416503 0.02047867 0.011341929 -0.040309906 0.045408096 0.0027039163 0.036951635 0.04523411 0.030250374 0.021794308 0.015874635 0.037660513 -0.048269868 0.020741943 -0.045984067 -0.045582738 -0.011269711 -0.02819543 0.036368135 0.029903743 -0.021063829 -0.0065997466 0.030316237 -0.010523103 -0.0038424134 -0.016391657 -0.036489107 -0.024183178 -0.029972231 0.021580342 -0.027947128 -0.0011062734 -0.012163065 -0.0012108199 -0.012441717 -0.026445806 0.004297722 -0.0105566755 0.015890349 -0.012133263 -0.031907894 -0.043516435 0.016044628
means -0.047040462 0.038822804 -0.0084757805 -0.041881155 0.016346347 -0.0074646845 -0.035603713 0.0074975006 -0.0066737905 0.025685016 -0.022149159 0.034598384 -0.045043495 0.04266337 0.033811126 -0.037201833 0.020387318 0.001225315 0.041345205 -0.009299003 -0.009621978 0.020879868 -0.038501598 -0.030883884 0.015888918 0.04199041 0.041683506 -0.04238856 0.007867526 0.028507542 0.004659068 0.0005424395 0.008409787 -0.021091878 0.02091435 -0.043775547 0.017265346 -0.047636665 -0.04559323 -0.0310619 0.042069588 -0.049640335 0.03862187 -0.03159076 0.047453966 0.046635274 0.014525566 -0.020503808 -0.04812169 0.008651353 -0.016089868 0.010025598 -0.027680254 -0.021701694 0.021092702 0.036953796 0.015823673 0.00086058304 0.012815621 0.008214794 0.03202716 -0.003697347 0.04518963 0.030763198 -0.017770242 0.04189105 -0.025468564 -0.041324794 -0.0048921704 0.01142025 0.016378868 -0.037402548 0.033416774 0.04223294 0.012324881 -0.015198886 -0.04126271 0.027792338 -0.025044119 -0.018484734 -0.04532936 0.011924647 0.043308053 -0.018161617 0.036234293 0.023093391 -0.039270602 -0.0309726 0.027578715 -0.039536633 0.03955548 0.025730219 0.0040566325 -0.017970681 0.038075875 -0.04103279 0.047880534 0.021206822 0.044060554 -0.012883972
spread 0.0049461834 -0.024975408 0.026728515 0.049894046 0.04285487 0.014273677 0.0027456507 0.025777701 -0.038816787 -0.033376206 0.04978354 -0.00551356 0.02706499 0.010586321 -0.032112896 -0.0054272637 0.008828223 0.022618663 -0.047292482 0.0051570907 0.003095828 -0.0025648586 -0.017098714 -0.0017697699 -0.0053389557 -0.02597325 0.018105876 0.047209393 0.026986841 0.040698443 -0.008853734 -0.001491297 -0.04333625 0.013176415 0.027701009 0.029745687 -0.021427382 -0.015724279 -0.001682125 0.033841696 -0.0096716285 -0.02189063 0.01886836 -0.020067954 -0.038686942 0.02390391 0.038452867 -0.03525386 -0.032987334 -0.020666158 0.03778385 0.026876818 -0.010343719 -0.018499017 -0.02319553 -0.02729553 0.0059387796 0.048954215 -0.03365426 0.024339344 0.015431169 -0.00029172748 -0.029288149 -0.007134296 0.0012524351 0.04716189 0.018564489 -0.045663692 -0.00991112 0.044505548 0.02256814 -0.031902216 -0.0017874017 -0.030217065 -0.02993877 0.0057006963 -0.004975546 0.0233601 -0.0040672906 -0.027464092 -0.04200349 0.0025393143 0.049631763 0.012184739 -0.031945623 -0.004757285 0.0028904304 0.020450976 -0.039136123 -0.041895498 0.04827023 -0.028506828 -0.017284952 0.008744098 -0.033030942 -0.039499678 0.022711564 -0.012399066 -0.00369972 -0.018262316
faster -0.0234977 0.0019967668 -0.0055922046 -0.021963108 0.024922859 -0.025222361 0.036518287 -0.041217875 0.026751745 -0.0016017556 0.016910147 0.01209458 0.025792647 -0.013873458 0.013293777 -0.0421857 0.028968368 0.021799948 0.017594505 -0.02755797 -0.0052333362 0.013111103 -0.0068195574 0.022481572 0.012708832 -0.04417881 -0.024242807 -0.017413307 0.043117594 -0.04942416 -0.010639705 0.0037833564 0.041932847 -0.048492253 0.0013109334 0.020746682 -0.012058843 0.0012977123 0.031048145 0.03862453 -0.02222097 -0.011840057 -0.026600158 0.048875127 0.015766982 -0.0026463754 -0.007817589 -0.033185385 -0.027336169 -0.01742642 0.03270613 0.004023254 -0.036129452 0.034934524 0.023131613 -0.029306745 -0.015479721 0.0305419 -0.031595863 -0.019841326 0.011848867 -0.016708337 -0.0064699426 0.016120385 0.023980644 -0.048450243 -0.002029337 -0.021326352 -0.038483035 -0.019293785 0.030692626 0.018187258 -0.030865526 -0.008160662 0.04786427 0.010112237 0.0015872009 0.048216764 0.017128471 0.031120863 0.03760096 -0.041837 -0.023679627 0.016757857 0.029782917 -0.008233629 0.022535328 0.020510737 -0.00015492365 0.044540834 -0.018505622 -0.03607329 0.0017498955 0.014335047 0.047494654 -0.030649459 0.015237417 0.0021126494 0.019864585 -0.04599564
further 0.0401762 -0.021979332 0.021013822 -0.015478216 0.011571944 -0.047322072 -0.028277218 -0.017585646 -0.0060833097 -0.0018255003 0.049320314 0.043842975 -0.0040333048 0.022022497 -0.010460652 -0.02258724 0.0390434 0.037030134 -0.016440608 -0.042111658 0.012367405 -0.032102726 -0.02184837 -0.0349221 0.011996351 0.010933995 -0.04461025 -0.045798004 0.033551183 -0.04133712 -0.0099952 -0.038271952 0.014303517 -0.036731195 0.029705312 -0.040733326 0.0005063787 -0.004664637 -0.03613453 0.012846697 0.028389696 -0.047592785 0.045455102 -0.018981839 0.019758347 -0.04195403 0.045054186 -0.018879665 0.031944398 -0.04858576 0.044603277 0.0065435544 0.025803331 -0.00867071 0.03310969 -0.012968671 0.042414736 0.023547221 0.0012855642 -0.04475236 0.032590155 -0.022076523 -0.04002161 -0.02605722 0.0032306202 0.04815631 0.03246558 0.049128387 0.044565964 -0.019496739 -0.013335802 0.019222844 -0.028807545 -0.011070836 0.0059802905 0.02823421 0.020239089 0.0015829094 0.035996024 0.022300553 -0.019678056 0.04851084 0.019430999 0.023830656 0.02685744 0.04997534 0.049645353 0.04349694 -0.031433783 -0.028859412 -1.5757978e-05 0.046151612 0.029670585 -0.04597224 0.004857458 -0.04722936 -0.01809778 0.036511544 -0.00035471842 -0.017661858
first 0.03741323 -0.030459274 0.018543508 0.046191897 0.0046955943 -0.014434338 -0.00063960627 -0.030878067 -0.01885339 -0.02899835 0.025180269 -0.031479754 -0.03271382 0.026331712 0.018032182 -0.032089427 0.007727541 -0.028552342 -0.009766828 0.010859955 -0.029951764 0.034002755 0.00030731037 -0.042549778 0.013616573 0.04176039 0.027854096 0.016661528 -0.01550591 -0.043814767 -0.038766623 -0.010069549 0.0077683553 0.014321934 -0.021095717 -0.04430541 0.005526088 0.049795415 0.0047152415 -0.04442636 0.00084688514 -0.030207777 0.03942534 -0.045721352 -0.045423307 0.017759886 0.03165369 0.033043686 -0.019794405 0.024578702 0.03580681 0.0396271 0.0029678568 -0.008460652 0.009220302 0.01939119 0.038648237 0.016365122 0.03760537 0.0018446222 0.003417302 -0.025616813 0.002937246 0.026010726 0.037119556 -0.015796613 -0.0049789436 -0.02055912 0.019816805 0.012057386 0.022766363 0.030148339 -0.03730446 0.046030644 0.02612466 0.01715343 -0.03986149 -0.04204607 0.00981741 -0.039274357 -0.031253565 0.032268886 -0.040390454 -0.019710744 -9.2841685e-05 -0.046671104 -0.02896179 0.006669283 0.016875934 0.0068610907 0.022273388 -0.0059974305 -0.018343091 -0.0026050583 0.047330726 -0.008258022 -0.04896542 0.00606934 0.02097622 0.04085089
illness -0.0049122684 0.039393533 -0.039638363 0.018031929 -0.015344214 9.917095e-05 0.014922012 0.043196384 -0.042874336 0.041808035 0.03802829 0.0028936863 0.005490493 0.02689207 -0.047907364 0.009523474 -0.03342638 0.02250949 -0.045544922 -0.0373832 0.01335657 0.005777348 -0.0021436103 -0.011420168 -0.037664223 0.042075727 -0.042425323 0.014366899 -0.033846453 0.04717249 -0.041087817 0.0071541183 -0.037108086 0.0036034584 0.01247561 -0.021687293 -0.028578078 0.0036855824 0.018970478 0.014617894 0.015088227 -0.007848751 -0.03855618 -0.017094098 0.020529274 -0.029727483 0.020132069 0.006473385 0.0036226884 0.036720242 0.042246137 0.002836179 0.04513557 0.013313305 0.0012798421 0.04561447 0.04947373 -0.0013792627 0.032166984 -0.028283263 0.0160208 -0.021900356 -0.0077180974 0.040544216 -0.028136158 -0.034638416 -0.03524808 0.03151032 0.007974446 -0.034493268 0.044885647 -0.007391859 -0.04863075 0.017192233 -0.025001025 0.039495636 0.018980708 0.011995576 0.04075222 0.012299977 0.047662947 0.041403 0.02910849 -0.025043178 -0.00088471174 -0.041510046 0.012089394 -0.028959 0.0151336305 1.46739185e-05 0.039977457 0.040403817 -0.039237738 -0.04557587 -0.033128344 0.04567324 0.047351602 -0.033488944 0.017078366 -0.016173948
or 0.008101605 -0.041963615 -0.020785248 -0.036668718 0.011880316 -0.02296902 -0.04927491 0.035428587 -0.048374057 0.040849436 0.039649393 -0.023744106 0.036378596 -0.017213415 0.012247432 -0.014068972 -0.028297842 -0.024451423 -0.012685299 -0.045143284 0.003929209 0.043131318 0.010914553 -0.043052744 0.02094305 -0.012568474 0.030811798 0.023773577 -0.045054294 -0.04789373 -0.013579212 0.04406749 0.039403502 0.026058782 -0.0027440898 0.0265746 0.0032282956 0.042199302 0.037942756 0.02106278 0.022986557 0.025128666 0.0134754665 -0.024405574 -0.025359571 -0.016326308 0.006946873 0.044763077 -0.011545945 0.014129426 0.018740963 -0.023696745 0.005197298 -0.02876941 -0.039285578 0.008804977 -0.025931 0.02094138 -0.030292952 0.033002865 0.008527197 -0.00675714 -0.018263936 0.038835716 0.017045941 0.025823507 -0.021976877 0.047218982 -0.019124305 -0.038393714 -0.04507805 0.011423409 0.011198889 0.047586445 0.045037184 -0.04144163 -0.013268389 0.007779397 0.018280651 0.04239105 -0.009974696 0.04314507 0.0127003305 0.023631122 0.04666063 -0.021939028 0.03365687 -0.04382993 -0.00598637 -0.040011514 -0.048547007 0.033992518 0.007339038 -0.04447329 0.040328685 0.042725254 -0.025166726 -0.024745394 0.034502853 0.010177694
potentially -0.011516474 0.008767046 -0.0022948869 -0.014837801 -0.019780373 0.015148688 0.04407445 -0.048826683 -0.025519991 0.022790704 -0.012945771 -0.0073142424 -0.0038400777 -0.027090872 0.0028895847 0.014332462 0.026934389 0.047757987 -0.007243287 -0.024335409 -0.031337284 -0.021936774 -0.0016927123 0.030104663 -0.01555077 0.034349147 -0.018217433 -0.016595542 -0.014590155 -0.0020398274 0.036655102 0.029590737 -0.038922332 -0.010159899 0.03517982 0.0064805746 0.026932549 0.025612924 9.8250806e-05 -0.0066498145 0.04944935 -0.022968614 -0.049941923 -0.04571564 -0.034321308 0.046170447 -0.014776576 0.04451556 -0.04324409 0.049803797 -0.0071845427 -0.0051531084 -0.0018211827 -0.010583617 0.04004849 -0.048263896 0.04950602 0.013495211 -0.042337608 0.027245495 -0.023448301 0.03604882 0.018898632 -0.020832479 -0.030950129 0.018495154 0.0016722456 0.006981205 0.020441148 -0.003650926 0.017171767 0.0070784315 0.028135564 -0.011318196 -0.005020261 -0.047705676 0.049699675 -0.013075791 -0.038306274 0.036025885 -0.03339245 0.041051436 0.040990595 0.034282926 -0.036295034 0.03222168 0.02893741 -0.022370934 -0.047708582 0.04468329 0.0021462925 -0.047553528 0.036623288 0.030339006 0.016356971 0.009800661 0.039150264 -0.030217493 0.021258939 -0.027895762
pre -0.025584925 0.047478143 0.021718178 -0.045454502 0.02840722 -0.039075445 0.0141030885 0.04425353 -0.007688321 -0.036659874 0.047654454 0.049362693 -0.0077176318 -0.0041043162 0.03580642 0.030667748 -0.035265587 -0.042726424 -0.009818565 -0.044343974 0.01726817 0.034258734 -0.009008158 -0.019276952 -0.022387637 0.03707118 -0.00031474978 -0.048370983 -0.0021400824 0.027512792 -0.034758043 -0.0047439113 -0.03200139 -0.04091228 0.004811384 0.011702739 0.04320064 0.010418236 0.010770608 0.011302985 0.007342577 -0.032065928 0.033375714 -0.030100966 -0.027248645 0.037536528 -0.014731359 0.047491584 0.009798098 -0.019764472 -0.0320874 0.03104886 0.017797504 -0.031346727 0.0007042289 0.049391042 -0.031378675 0.033595588 -0.031716287 0.04099187 0.03883035 -0.041890286 -0.015541993 -0.00030125305 -0.028322697 -0.0018464923 -0.0139158 0.045674775 0.008048903 -0.02257197 0.0005962737 -0.048196174 -0.0068847165 0.016865257 -0.019491065 -0.021265602 -0.031948507 -0.008788157 0.03356618 0.0021586902 -0.04470718 -0.017258275 -0.045286454 0.024545323 -0.013198126 0.008951176 0.032021213 0.02922133 0.04126222 -0.014526974 -0.027236497 -0.01599165 0.038572025 0.02512132 0.023023617 -0.018882548 -0.0075827464 0.0056546554 0.03487969 0.030850854
symptomatic -0.022711266 0.049532715 -0.04434911 0.02103177 -0.04411993 0.039777223 -0.004621614 -0.015432872 -0.003309764 -0.016552009 0.011420678 -0.0006841421 0.021376345 0.012127399 -0.011308812 0.02651025 0.033185575 -0.04244503 -0.04556347 0.01626644 0.029073741 0.01886015 0.0038753636 0.017015506 0.047216583 0.034005273 -0.011846304 0.015318956 0.046866063 0.016457092 0.023549471 0.0069946162 0.02187952 0.03513093 0.037246037 0.018659476 0.007961534 0.014207553 -0.042469896 0.020818915 0.014330234 -0.0043071285 0.03807957 0.037595976 -0.03965609 0.046087217 0.018800844 -0.03944192 0.020200778 -0.019695366 0.046364997 0.01957113 0.046016026 -0.025862444 -0.028816378 0.028899673 -0.031530395 -0.02969767 0.02685782 -0.038173832 -0.038050126 -0.003395833 0.0207736 -0.017900348 -0.009743787 -0.0015616901 -0.027047371 -0.014557194 0.04785737 0.039690804 -0.038940966 -0.0023494475 -0.010133814 0.046223495 0.048967626 -0.0336864 0.03556304 -0.039390884 0.024285901 0.04910544 -0.024449384 -0.01151558 -0.04524709 0.01611061 -0.026498986 -0.014302503 0.03642216 -0.033858553 0.034379546 0.047870006 0.00051824003 -0.007977534 -0.027185714 0.0074458607 -0.021500194 -0.014509119 0.047140095 -0.034298934 -0.0491848 -0.027380455
–transmission -0.017747331 0.0052794926 -0.0071734414 0.0008926019 -0.0012154207 0.032935668 -0.015654407 0.041286144 0.03396375 -0.029661465 0.04047412 0.034892526 -0.028875088 -0.028887047 -0.043598928 -0.017306887 0.02449957 0.000823427 0.04824649 -0.024732936 -0.016410492 -0.017107882 -0.023877049 -0.03647096 -0.023775255 0.028445456 0.02843279 -0.037555277 0.036195483 0.032824103 0.016875137 -0.0018358603 0.009656288 -0.04136591 -0.00407777 0.049123492 -0.04915309 0.027391437 -0.0013507716 0.034495387 0.020222139 -0.044992924 -0.00243143 -0.03349607 0.03496221 0.038347114 -0.027974082 -0.031361535 -0.006493915 -0.004464317 0.026098084 0.020739567 -0.016465664 -0.03558289 -0.044150867 0.016810331 -0.018279683 0.012413632 -0.02253436 0.049655367 -0.013816465 -0.011150755 -0.040677942 -0.018242646 -0.019283915 0.018533554 -0.022181392 0.024935905 0.03049532 0.027335394 0.026412997 0.03675734 0.012076557 0.021754388 -0.03347107 0.036489654 0.046888735 0.048024822 0.0020578727 -0.02179171 0.043167222 0.013572741 -0.011745285 0.01928829 -0.04249053 0.023971248 0.029254843 0.002626229 -0.041384827 0.0018586516 0.009831689 0.022643734 -0.019586122 -0.04371574 -0.03992177 -0.034433972 0.016633105 0.014027227 0.04236337 -0.013200916
before 0.028401997 0.038602803 0.046720866 0.015953306 0.0438578 -0.047828425 0.0437322 0.04949421 -0.032958735 -0.029714251 0.015629303 -0.004070889 0.04624361 0.030139614 -0.020957602 -0.017792713 -0.019285155 0.04705378 0.033278886 0.038958956 0.032246616 -0.03819518 0.02578688 -0.017292488 0.040936533 -0.042463433 -0.0033027753 -0.012086369 0.04799259 -0.010799907 0.005152773 -0.0053668246 -0.010139048 0.011884082 0.029740918 0.018601265 -0.017226517 -0.043559648 -0.003936447 0.020232622 -0.031778444 -0.04430114 0.020152878 0.0063622966 0.036216322 0.01719505 -0.016985215 0.04137322 -0.030892337 0.04712684 0.02406789 0.008104432 -0.049636472 0.0035383478 -0.00487224 0.04186112 0.0035051703 -0.009600617 -0.031612895 -0.04085393 -0.011910211 -0.038873293 -0.032981135 0.017316882 -0.015335083 0.029316414 -0.015896343 -0.0005498156 -0.017999507 0.038742688 -0.047461428 0.03388233 -0.03191035 0.024375085 0.037669685 -0.019075334 -0.045159508 -0.041370094 -0.023604346 -0.040492523 -0.011676598 0.031539116 0.012166619 -0.020107245 0.047624815 0.012336921 -0.009767152 0.033305336 0.03806751 -0.042221572 -0.012266267 0.048439194 -0.007928394 0.038415316 0.020447921 -0.031796314 0.049451243 0.011906624 0.041024175 0.020021845
contrast -0.012883998 -0.037082158 0.016435448 -0.045289874 0.006053187 -0.038726877 0.0041928776 -0.010870837 -0.0130414255 -0.0027904138 0.029852998 -0.034607876 -0.0107066035 0.03953362 0.0085965395 0.01782551 0.030327711 -0.045756437 -0.041158926 0.03400198 -0.008158542 -0.023975909 0.003963448 -0.03317486 0.03954078 0.015324537 -0.035093747 0.01268686 -0.013847552 0.04366832 0.008032989 -0.042323567 -0.0030658618 -0.036666453 -0.014019631 -0.00393958 -0.027733995 0.023476567 0.00448028 -0.0015236028 -0.04176419 0.0014721863 -0.045736503 0.041174006 -0.04809585 -0.025617266 0.04966754 -0.031053139 0.0031087026 -0.047597505 -0.04056139 0.020621229 0.03885546 0.0424016 -0.026672864 -0.03965932 0.040450204 0.026807453 -0.0024785027 -0.0012398958 0.049977433 0.0285596 0.012956593 -0.03715546 -0.0005354658 0.013237309 -0.044336725 0.042032946 -0.008057237 -0.049688604 0.032692302 0.03137472 -0.02379098 0.028834585 0.039449777 0.011800598 -0.017643988 0.03603563 0.0335608 -0.03954128 0.0057144053 0.039589968 -0.0023669116 -0.029910589 0.04717106 -0.0012233853 -0.002538871 0.009728409 0.0064565167 -0.048814215 0.029722009 0.03081521 -0.0050985813 0.01503421 -0.042448163 -0.0187384 0.041620042 0.037048046 -0.03214512 0.035650764
we -0.009153772 -0.042881098 0.029339496 -0.039429747 -0.034870505 -0.043395843 0.02656157 -0.049195077 -0.037262462 0.013588693 -0.0386691 0.026977722 0.022571433 -0.02182213 0.008673631 -0.03259504 -0.032312334 0.015155803 0.01873542 0.006406378 -0.008538377 -0.04712204 -0.026553392 0.04699329 0.032308888 -0.011232458 0.025399093 -0.038427997 -0.00087864324 0.006564319 0.036266696 -0.04757613 -0.027889777 0.009752773 -0.009893119 -0.024241269 -0.003245391 0.022291947 -0.0034849048 0.025612403 0.014634658 0.044151556 0.039796863 -0.005584825 -0.02182938 -0.032856703 -0.017463338 0.044495296 0.0075977445 0.040965106 0.013247918 -0.008353852 0.049449135 0.03506485 0.029671792 0.025792312 -0.020744001 -0.0007367246 0.005687166 0.038571153 0.049152683 0.035699878 0.025193442 0.031919148 0.009716202 -0.041431643 0.013805758 0.037446115 0.03940184 -0.009280633 0.0034315214 0.04391021 -0.019057108 0.032787416 0.02934375 0.0033882149 0.037534382 -0.030751694 -0.04297006 -0.03461981 0.026934493 -0.00036084652 0.0017515644 0.040579353 -0.001232218 -0.046776142 -0.037856877 -0.035537086 -0.048666537 -0.042715788 -0.04965184 0.039667595 0.0014347546 0.027021077 0.046838056 -0.03682848 -0.03361442 0.03587016 0.027465772 0.0006255619
learning -0.040397357 -0.013295554 0.00278721 0.014489893 0.044093978 -0.022551572 0.04246136 0.004544247 -0.023235321 0.043481205 -0.017102517 -0.033134364 -0.04035312 -0.0040789247 0.012021255 0.019374061 -0.0103803985 0.03972062 -0.010974981 -0.03479589 0.047617484 -0.021040022 0.020942632 -0.012635481 0.03168687 0.01316544 -0.047790684 -0.034518074 0.01759274 -0.04673302 -0.004297912 -0.027601315 -0.023083795 -0.022840476 -0.026188135 0.017021026 0.049927656 -0.007831894 0.023296867 0.007932961 -0.0154540315 0.003198266 -0.021977294 -0.042812586 0.017446768 -0.035300195 0.021864306 0.03162053 0.027725194 0.018753458 -0.030507887 -0.006649375 -0.014955305 -0.04877584 0.0368116 -0.040245544 0.04743613 -0.04805095 0.0033245198 -0.0039233677 0.04896206 -0.004167378 0.008378614 -0.024590695 0.043044914 -0.020506395 0.03650153 0.020124186 0.042430114 0.028836776 -0.024526644 0.0045922175 0.012354396 -0.002439104 0.025307324 -0.00083950907 0.026766215 -0.001280617 0.025974367 -0.035344325 -0.042343047 0.0037184842 -0.04470942 0.007190954 -0.00683577 -0.026152456 -0.030721163 -0.04540031 0.0006180629 -0.0369576 0.03511553 -0.013264693 -0.00828439 -0.020527339 0.017734673 -0.047087133 -0.012930404 0.045097914 0.048829947 -0.00861771
there 0.0013852939 0.028906908 0.012454998 0.021793377 -0.025962496 0.032639693 0.02868041 -0.018954849 -0.047455218 -0.030970205 0.040412355 0.002752971 -0.04235307 -0.038241528 -0.04613166 -0.03707533 0.004056193 0.013697494 0.008645762 0.020255517 -0.041730464 -0.026121557 0.0030304901 -0.014355741 0.007680714 0.035322797 0.04267286 0.04146352 0.031827215 0.018566255 0.031479407 0.006917417 0.04995023 -0.040353514 0.03811642 -0.03330647 -0.010780513 0.01247834 0.034749042 0.026256789 -0.01683103 -0.03589089 0.048018787 -0.038925957 -0.015513707 0.04220904 -0.0022179596 -0.005657185 0.0361177 -0.028861059 0.015980992 0.007437419 0.008683823 0.024025444 -0.037844934 0.009793092 0.026974294 -0.02897644 0.004143823 0.039976332 0.048717882 -0.021475507 0.04808868 0.03913841 0.035641138 -0.0036736727 -0.04621712 0.031867754 0.016710307 0.013530884 0.007659875 -0.034328748 0.011753716 0.0063760765 -0.020673668 -0.008195091 -0.044321526 -0.048680615 0.005237054 0.012806896 -0.036342848 0.041933987 -0.024503088 0.0027691834 0.00032569095 -0.009907268 -0.0022677071 -0.040197037 -0.0056016445 -0.039327383 -0.046971608 -0.032877184 0.011700846 -0.04726504 0.032279495 -0.008328237 0.019389857 0.006505478 0.034107517 0.0013757236
people -0.023884106 -0.0007195361 -0.038185466 -0.018448044 0.009853698 0.010926176 0.0014048591 -0.025651885 0.042436313 -0.018838001 0.013632368 0.0032740235 -0.03940449 0.0055984147 -0.039024554 0.0032677539 0.03333677 -0.047909167 -0.014541544 0.0014169104 -0.048978724 0.024601046 0.013534259 0.0442441 -0.03829204 -0.045694005 -0.009678684 -0.008799374 0.04667237 0.03413291 0.02183706 0.021094512 0.013831604 0.037793603 -0.047398377 0.03210688 0.011242282 -0.04638472 0.038983416 0.0073097944 0.015433062 -0.031868473 -0.040527035 0.029747557 -0.038928557 -0.03424462 -0.033845864 -0.008075524 0.031567562 0.021703634 -0.031985246 -0.033079408 -0.012718894 -0.0074825883 0.010395013 -0.03498163 0.021577623 0.045847718 -0.040752042 0.025748078 -0.028572977 0.0137690045 -0.029434025 -0.014205933 -0.0018228516 0.030370425 -0.0074782856 0.022435848 -0.0076175556 0.04223709 0.031215776 -0.0203655 0.045464363 -0.030535592 -0.0155229345 0.03892422 0.011613011 0.001844205 0.045548383 -0.03146591 0.0062489733 -0.04202473 -0.026953949 0.010576546 0.017241526 0.04572809 0.028522875 -0.012684919 -0.043250013 0.03578535 -0.018233038 0.043410372 -0.049895238 0.0018421523 0.046992008 -0.024482405 0.035029244 0.029994968 0.02055088 -0.00017906353
who -0.040770926 -0.009260379 0.035831455 -0.049536597 0.000477314 -0.013119411 -0.018878413 0.019868527 -0.049697615 -0.016038537 0.014579881 0.04245683 0.04748502 -0.021025216 0.0019442923 0.048100915 0.042517964 0.033756185 -0.015816879 -0.043498375 0.04269736 -0.00510161 -0.009844102 0.028018955 -0.040050507 0.012760248 -0.04229201 -0.002822768 0.049781922 -0.025431072 0.0032880902 0.035121452 0.00086369365 -0.0028499477 0.020162035 0.030457567 0.044079784 -0.005481027 -0.043031406 -0.046555556 0.0021367297 -0.02736683 -0.038648915 -0.029427564 -0.0045285 -0.04358833 -0.019267786 0.0013318174 0.01976278 -0.039412834 -0.029577946 -0.006078042 -0.021820797 0.025571693 0.03326628 -0.010826848 -0.042784847 -0.0098497495 -0.049560573 0.03508315 -0.048234057 0.036657188 0.015444364 0.0119311325 -0.006284427 -0.008213997 -0.017056 -0.010710694 -0.04993471 0.030821133 -0.043934144 -0.037682988 0.03934667 0.017685268 0.02388442 -0.018421628 0.014380936 0.018477406 0.0034659393 -0.03951286 0.04821373 -0.045129836 0.003925346 -0.045998335 0.01108668 0.033608887 -0.03929943 -0.02275672 0.029744659 0.023740415 0.03730272 -0.00076837465 -0.02664417 0.035880636 -0.01573801 0.032751087 -0.038194396 -0.029973567 0.034921255 -0.045970466
shed 0.030608322 0.0010325201 0.014703784 -0.029699922 -0.01491376 0.047583286 -0.021350814 0.04336938 0.024781417 0.035844635 0.017214682 -0.018529452 0.009342957 0.04995502 0.035573173 -0.032411195 0.04483327 0.023431811 0.045373414 -0.017711781 -0.047329605 -0.00082813576 0.02281883 -0.025685132 -0.03785286 0.028281141 -0.04251503 -0.018592846 0.04235133 0.022244599 0.044052888 -0.034351528 -0.0066154823 0.034749974 -0.006968558 0.028337728 0.043524925 0.008541536 -0.005570758 -0.026561989 -0.009565033 0.049551476 0.033828173 0.004161179 -0.018025208 -0.048855077 -0.03649553 -0.01703595 0.02232385 -0.023799336 -0.04928975 0.034020294 -0.03210459 -0.031289995 0.012779269 0.04325575 -0.019984603 -0.018106151 0.045949195 -0.016358674 -0.029357314 -0.040905654 -0.012475513 0.019639198 0.016490009 0.048565913 0.03429066 -0.04697702 0.0158015 0.029099118 -0.03175898 0.01742467 0.03133658 -0.043523826 -0.016704548 -0.007663477 -0.016172338 -0.042326033 -0.03736937 -0.04505538 0.002719283 0.010578416 0.043708567 0.027454738 0.036363732 0.03039134 0.018622268 0.00024486706 -0.024242926 -0.047528695 0.00029658154 0.009147681 0.04950053 -0.0052341223 -0.027846837 -0.035240483 -0.019736195 -0.03281008 0.010325693 -0.043000378
24 -0.0063007474 0.043892276 -0.0357906 -0.043475974 0.004363835 0.00040254742 -0.03349488 0.04625381 0.013496969 -0.010258008 -0.040391423 -0.016085614 -0.031007683 0.015716862 0.009452105 0.021282446 -0.0022472031 0.033510234 -0.032363437 -0.012536336 0.0005517714 0.044041563 -0.043970525 -0.016702067 0.02775998 0.019508611 0.038316492 -0.030586435 -0.011173319 0.04573376 -0.024203349 -0.016256522 -0.03258288 0.049122278 -0.0099488385 -0.03423922 -0.016423427 0.02213994 -0.003677763 0.04602099 0.007040642 -0.011270978 0.036525417 -0.01643785 0.04300035 0.0055346712 -0.026978446 -0.042935014 -0.0023426637 -0.011786509 -0.00039253384 0.034315143 -0.034163702 -0.009004474 -0.0461087 0.010969233 0.018692221 -0.016037393 -0.020196676 -0.04278929 -0.042445876 -0.04791342 -0.009181224 0.046183836 0.037257764 0.019807901 0.012711313 -0.037758566 0.006321382 -0.0106418505 -0.049301505 -0.022050953 0.010598443 -0.008305073 0.011070944 0.021600518 0.027321067 -0.04783373 0.013983991 -0.0051439516 -0.032345735 -0.014462791 -0.008586835 0.036630426 -0.0048117153 -0.047430396 0.045935098 0.024165098 0.04386873 -0.040010083 -0.012291253 0.026118208 -0.020631468 -0.014684044 -0.02462411 -0.024413371 0.041099403 -0.037555613 -0.017443813 -0.023235798
48 0.00034115463 -0.021382535 0.027720403 -0.017287541 0.0021095276 0.04504097 0.043018285 0.008116972 -0.011507083 0.038979027 0.027395356 -0.0058668368 -0.015560783 -0.0059065446 -0.023836672 -0.03586594 -0.0451406 0.039889824 -0.0059850216 -0.024499798 -0.0055732355 0.02233627 0.010346342 0.0038943663 -0.024202323 0.00074439123 -0.045260396 0.019498143 0.0066944137 0.043359686 0.028918277 0.027977202 -0.029261565 0.042524066 0.0010102168 -0.046576895 0.03757037 -0.004488863 -0.011627972 0.031331394 0.011167537 0.0008513704 -0.0306643 -0.0054510236 -0.029195799 0.0007128492 -0.0139321685 0.040255513 -0.020963311 -0.049075473 0.02899975 -0.0022672303 -0.037126698 -0.0313571 0.021987919 -0.041591108 -0.034120083 0.02508204 0.04486097 0.042104248 0.046384286 -0.0409979 -0.03052243 -0.032039583 0.0063632503 -0.045517255 0.013597574 -0.020206356 -0.046293925 0.015444126 -0.0007914305 -0.03549248 -0.03517846 -0.016803313 -0.030305063 0.0030224435 -0.020518994 0.01208844 -0.019032871 -0.01909988 -0.03802198 0.02299608 -0.028965557 -0.042328656 -0.023081899 0.039428856 -0.01983676 -0.020602107 0.046533678 -0.017191134 0.036107514 0.009519242 0.04078174 0.018796477 0.03836227 -0.027771771 -0.008167695 -0.023114324 -0.026111567 -0.018083237
hours 0.04451472 0.03306851 -0.023421455 0.037646223 0.038911555 0.013807047 -0.032646917 0.013024602 0.026860844 0.034672882 -0.02664584 0.027178753 -0.009052433 0.0253 0.010204054 -0.014427353 0.0014803186 -0.023935914 -0.03494977 -0.03377279 -0.034276832 0.031882975 -0.032491017 -0.005917944 0.010291588 0.026283178 -0.023782898 -0.043414082 -0.008182894 0.026678119 -0.036614 -0.0005707517 -0.028272701 -0.011942435 -0.0007069707 0.01492149 -0.04846814 -0.0044185407 0.018070493 0.03978279 -0.031773113 0.017564762 -0.042406656 -0.016897012 0.03945606 0.039514784 0.0029366724 -0.024188722 -0.03809742 0.016180899 0.008486401 -0.02351774 0.026574705 -0.01635883 -0.02144537 0.010380626 -0.037174176 -0.015499949 -0.031163907 0.012421001 -0.0470487 0.0054604784 0.042769123 -0.03790704 -0.046736028 -0.041621804 0.015217077 -0.042701066 0.0026716217 0.03666761 -0.033241056 -0.04434804 0.012254346 0.042754117 0.032567788 -0.035864294 0.0368811 -0.0485857 -0.015077185 0.022191193 0.04018129 0.0066657066 0.028511476 0.038458314 0.03586516 0.010644566 0.023634579 0.04574964 -0.009364914 0.016795252 0.046185922 -0.030401994 0.023975577 -0.048955824 -0.022532655 -0.008099925 -0.012898933 -0.014232516 -0.0026038177 0.0018412694
prior -0.010958184 0.003548611 0.04406381 -0.048300516 0.04312357 -0.049345948 0.019965056 0.0232337 -0.0029766336 0.016981196 0.005991958 -0.02638911 0.037926283 -0.04041772 -0.01966815 -0.018766988 0.021532562 0.014839623 -0.022937989 -0.04361266 -0.044963885 0.048979115 0.021430802 0.03433055 0.012053885 0.015608136 0.0004986748 0.03206325 -0.044880666 0.030782904 0.03855903 0.025160257 0.0036169775 -0.004696347 -0.04115615 -0.0057299025 0.021152947 0.035848085 0.004052628 -0.04026679 -0.039582647 0.038244832 0.042457115 0.01952568 -0.010867346 0.031052101 -0.044734288 0.017559174 -0.044662476 0.02087536 0.04759724 -0.03641212 -0.033294916 -0.028513445 0.012624849 0.020153198 -0.048147727 -0.010893442 0.047022212 -0.014076758 -0.047284305 0.041003 0.04587351 -0.023997461 0.028306488 0.008863889 0.024042595 -0.018231295 0.03961743 -0.010929834 -0.03575065 0.032316808 0.01911277 -0.023396766 -0.031189157 0.044325497 0.026503209 0.04336189 -0.033498038 0.04442184 -0.04994086 -0.04973905 -0.026389157 -0.030801058 0.011487462 -0.02751044 -0.04891325 0.041697208 0.012486268 0.045813408 -0.02462784 0.00053178146 -0.042823162 0.00033613294 -0.046869636 -0.041649032 0.03199083 -0.019449854 0.011284281 0.041535925
symptom 0.02266461 0.020825874 -0.03476708 -0.04518181 -0.033382535 -0.04746405 -0.0060361996 0.049352434 0.013705324 0.034801368 -0.013754427 0.015793 -0.043587722 0.031781923 -0.0033643954 0.04442053 0.01121714 0.039668653 -0.0281106 -0.04650047 0.047659364 0.03390534 0.035379242 -0.012342274 -0.013620138 -0.026872301 0.028287198 0.047702935 -0.028537512 -0.042548325 -0.025057781 0.009696342 0.010032177 0.023126628 -0.0119945295 -0.0030947104 -0.0040844195 0.013830412 0.0242141 0.027475666 -0.0030022636 0.0034818538 -0.028654218 -0.04941771 -0.032518078 0.015856635 0.024519626 -0.029514814 -0.015031468 -0.006160237 0.0041230693 -0.023867846 0.0379717 0.043080125 0.016625594 -0.043203916 -0.009671472 -0.026339877 0.006647419 -0.02565341 0.030694555 0.007996213 0.046788584 0.02969971 0.030122314 -0.017936956 -0.03405287 0.046398584 -0.025842441 -0.042388 0.018836882 -0.0054745898 0.04188918 -0.037484325 0.0153341405 0.037608173 -0.008236039 0.039450694 0.012695197 0.047436204 0.00809741 -0.04408121 0.019985233 0.02483363 0.0017675757 0.046949696 0.0003485568 -0.03806304 -0.0013186224 0.04313037 0.029047396 -0.03820468 -0.02233522 -0.009588443 0.011176597 -0.005070448 0.043965843 0.02872629 0.0034138188 0.035625603
onset -0.013251267 -0.01218196 0.019331027 0.042451207 0.018471766 -0.036362838 -0.039390694 -0.018638216 0.02787036 0.031668875 -0.039028347 0.0037330762 0.007685937 0.044963334 -0.031845115 0.03135589 0.022100437 -0.0011380911 -0.039080463 0.0063007586 -0.01847304 -0.04007299 -0.016849946 0.010289919 0.045920614 0.011126198 -0.0073469654 0.039581012 -0.049523592 -0.041187383 -0.01162418 -0.0033386946 -0.015030645 0.0057625994 -0.0037010908 0.015186716 -0.03555273 0.002646435 -0.030663764 -0.017892562 -0.038059365 0.03439084 0.003919147 -0.043729223 -0.049432814 -0.031047499 0.027842198 -0.040165115 0.009516288 0.030306865 -0.013196684 -0.0011228807 -0.01193098 -0.0095870495 0.03687868 -0.010432996 0.004066933 0.02426647 0.00077193975 0.010300197 0.015177999 -0.0028181076 -0.0182827 0.028329205 -0.009002436 -0.03728628 -0.02152139 0.01562253 0.03286237 -0.043796886 -0.033878803 0.025305394 -0.012750197 0.017512094 0.04314108 0.046532903 -0.0019812472 0.0122816935 0.025532912 0.02575976 -0.046651233 0.04096881 -0.024017429 -0.03632939 0.021753382 -0.0172984 0.01109948 0.046661224 0.014565561 0.015158366 0.018493745 -0.049946785 -0.0035248771 -0.020256413 -0.03255651 -0.046338785 -0.022495938 -0.034588814 0.04197843 0.0047122464
at -0.012345217 0.024218451 -0.04855155 -0.02754941 -0.018038452 0.029558409 -0.0047258623 -0.02078681 0.00015153736 -0.010951258 -0.036263883 0.024522852 0.02085695 0.03868289 0.01622678 0.00792972 -0.024821807 -0.022588933 -0.023143757 -0.017476033 0.013668608 -0.017876029 -0.006650962 -0.04543401 0.04432248 -0.033883348 -0.037765443 0.008904923 -0.008031033 -0.006800998 -0.04532188 -0.018991971 -0.043695785 0.027499307 -0.0018418208 -0.011185132 -0.010320496 -0.0032338388 -0.043014597 -0.024723126 0.021583248 -0.017037202 -0.030487359 0.019184578 0.02686138 0.030322168 0.025254752 -0.046128955 0.033039007 -0.025801087 0.015127424 -0.0056736097 -0.017057836 0.01580311 0.0013749711 0.028114203 -0.017305125 -0.03627975 -0.03801589 -0.04232136 -0.018278062 -0.048057355 0.024534713 -0.03809663 -0.027654529 -0.0222561 0.04898263 0.021763396 -0.026543308 -0.036300123 0.018220987 0.03127188 -0.013409339 0.009276666 0.022435252 -0.03588911 0.031714868 0.019345928 -0.0213619 -0.013967682 -0.04635147 -0.019011868 0.01432265 0.03844526 -0.016858649 -0.0066025034 0.040753316 0.026053939 0.041756976 0.03511815 -0.023251032 -0.04115398 0.013172675 -0.013217498 0.02847967 0.038878944 0.04761951 0.0013004653 -0.039902173 -0.01227355
present 0.02334607 0.029007982 -0.032051563 0.009642292 0.0055763237 -0.015138816 0.03697748 0.04094627 -0.01936747 0.030204225 -0.015550267 -0.0053922758 -0.009029638 0.000806164 0.020531025 0.04292978 -0.030245483 0.045456078 0.021068942 0.029371884 0.031480063 0.031115305 0.033185508 0.01810458 -0.017260768 0.036119487 0.02227268 -0.03577138 -0.014112424 -0.01517725 -0.025945937 0.012324415 -0.048998404 -0.029130101 -0.035507273 0.030424844 -0.024543142 -0.010678422 -0.037819862 -0.0393944 0.011588953 0.029410552 -0.034525525 -0.047673214 -0.030516505 -0.04333079 -0.048232175 0.026303533 0.00090571493 -0.031082798 -0.030015051 -0.03310617 -0.016703915 -0.025015092 -0.030212475 0.04754472 0.004294656 -0.0020416752 -0.035590492 0.018169034 -0.030633438 -0.005675506 0.035406362 -0.047650445 0.008265257 0.039102208 -0.046518054 -0.0145172365 -0.0035598986 0.045694616 0.024040554 -0.04391265 -0.03072374 0.035745945 -0.0319257 0.007931851 0.044928063 0.028295163 0.034602884 0.014051292 -0.039094247 -0.043350767 -0.017682828 0.021117304 0.019814122 -0.044122126 0.02975985 0.02579074 0.023806762 -0.006480802 -0.008716546 0.01321042 0.041519437 0.019177202 0.046096113 0.048121367 -0.00996251 0.03711443 0.042362604 -0.015487313
does 0.01742388 -0.013856899 -0.036286376 0.048830044 0.04037695 0.005541049 0.006976735 0.04539216 -0.032913223 0.0046056397 0.006187558 -0.0322053 0.034866963 -0.02407216 -0.046382725 -0.0213781 -0.010214187 -0.027129222 -0.025949372 -0.018133521 -0.039497625 0.022538211 -0.029555965 -0.021900797 0.001447726 0.019416917 -0.023518503 0.027646255 -0.04637159 0.025583867 -0.028634656 -0.034499537 0.015173804 -0.022548651 0.023117546 0.01966912 -0.047469605 -0.01855873 -0.017288625 0.023838472 -0.039998066 0.006510984 -0.010632418 -0.026999593 0.023982529 0.03918642 0.021084938 0.03931925 0.0076402053 0.035801362 -0.03722751 0.01570734 -0.003972579 0.0071954615 -0.0036264434 0.032112207 -0.011757933 -0.00257219 0.0040674694 0.044777345 0.0042850263 0.02839068 -0.040539026 0.042148102 -0.032510936 -0.04416108 0.018951107 0.032516982 0.028927717 -0.010540523 0.04098996 -0.04016453 0.021605682 -0.03475027 0.011104725 -0.045694936 -0.028139127 -0.018045507 -0.034608494 -0.008210611 -0.03679193 -0.045879673 0.0028921142 -0.016170122 -0.0028853528 -0.0123509765 0.04862112 -0.02980858 0.03649224 -0.02429824 -0.045966934 -0.018675804 -0.04136107 0.021848682 0.01678082 0.021475088 -0.029329872 0.017959762 -0.034258712 0.041730676
